graphs,0,1,2,3,4,5,6,7,8,9,10,11,12,13,14,15,16,17,18,19,20,21,22,23,24,25,26,27,28,29,30,31,32,33,34,35,36,37,38,39,40,41,42,43,44,45,46,47,48,49,50,51,52,53,54,55,56,57,58,59,60,61,62,63,64,65,66,67,68,69,70,71,72,73,74,75,76,77,78,79,80,81,82,83,84,85,86,87,88,89,90,91,92,93,94,95,96,97,98,99,100,101,102,103,104,105,106,107,108,109,110,111,112,113,114,115,116,117,118,119,120,121,122,123,124,125,126,127
AML-73-001,3.3489,-2.0419424,-0.43057805,1.0899718,-1.2228647,0.35622805,1.862198,0.5835364,0.32366046,0.9183853,0.4462078,0.97570443,0.63751864,-0.51683164,0.90324736,0.28151634,0.59529495,-0.42061564,1.4042515,-0.21988809,0.11916087,-0.71633923,-1.1097385,-0.2738689,0.2326313,-0.020066418,-0.3383742,1.1001921,-0.6542367,0.023259245,1.5410684,0.97069955,1.2210017,-0.12061331,0.8049173,0.21455973,0.7517418,1.2494159,1.6899359,-0.5303034,-0.3907251,0.42115638,-0.5001123,-0.78036666,-0.82423455,-1.1416824,-0.06572337,0.092813544,0.52650166,0.7282179,0.26021194,0.6125269,-0.36426318,-0.38213852,0.0705319,-1.3377762,-1.424542,1.1991272,-0.08508349,1.5308224,1.0528766,0.38034967,-1.3379285,-0.18053082,0.50710994,-0.4210808,1.6797038,1.1826966,0.31813303,-0.22238469,-0.3827865,-0.63282996,0.56556153,1.1248919,-0.82351905,0.5676907,0.14654128,-0.25094417,-1.5254776,-0.7507646,0.061702684,1.8994421,0.4843858,-0.22808951,-0.59729105,-1.571336,-2.8397079,-0.23173611,-1.3812503,0.023881527,0.36652648,1.5820391,1.7987016,-0.5392361,-0.5629235,0.91956234,-0.18749514,0.5805131,0.5225575,-1.5236131,-0.29921475,1.3387533,0.38796663,-0.57640904,-0.721763,-0.6735865,-1.203504,-0.0050213337,-0.5671732,-0.03983293,0.8744465,-1.8823946,-0.63738513,-0.010358679,0.59818697,-1.9563174,0.7470434,0.7489851,-1.9416965,0.040552385,-0.678249,0.24669573,1.0583177,0.5972709,1.5508617,2.0106335,2.0762682,0.39295325
AML-57-001,1.9770818,-1.6243696,0.723875,1.6068374,0.7595244,0.16700475,1.244,0.33654615,0.41659015,1.1589302,-0.6052105,-1.2939167,0.57087016,0.6630917,0.6287296,-0.03445261,-0.7827802,-1.3332143,-0.7810105,0.24271964,1.6706474,0.45137966,0.09146357,0.5393982,1.621835,-0.37351978,-0.38261524,1.2074534,0.8813407,-0.09216703,0.9757001,0.011388285,0.6812616,0.6808991,-0.5460776,-0.91081655,-0.43028396,0.16662948,0.5258094,1.4850768,-1.2566328,-0.32858494,0.21139692,-0.034565587,-1.852404,0.3810966,-1.0330158,0.44246796,0.06686604,0.46305406,1.5601475,0.122249044,1.6799747,-0.40279278,0.29261473,-0.60517997,-0.45977098,0.36284503,-0.7762977,0.54465514,0.7547768,0.25138927,-0.44810772,-0.70107454,-0.27754664,0.013627166,1.6261266,-0.28010258,-0.48839775,0.29285514,-0.39945516,0.60288304,0.6046428,2.9603572,-0.09219057,1.0994774,-0.40281934,0.08092614,0.17447147,0.38103032,0.7674617,0.86839676,0.84230506,-0.07504438,0.47808337,-0.514616,-1.0376987,-1.7344929,1.0829939,-0.88011205,-0.80942005,1.2602719,-1.5982189,-1.8042997,-0.05234084,0.63541317,-0.75153214,0.3516629,0.46095836,-0.16172898,-1.4892551,-1.1133947,0.3797284,-0.7237689,-1.1600938,-1.895702,-0.687246,0.40709692,-0.42793006,0.40754294,0.15717158,-0.40185815,2.1936882,1.055944,-1.5979155,-1.8145224,-0.69165903,0.52062,-2.2189982,-2.0430257,-0.42192036,0.08812461,-0.7283003,0.14692636,-0.47974214,3.0015683,2.176643,-0.13644305
AML-22-001,1.112897,-0.25858366,-0.07205727,1.8400466,-0.9682178,1.0482205,1.9585986,0.5098785,-0.100020275,1.0568115,-1.8425895,-0.47344372,0.4440349,1.5572549,2.6498687,-0.03804915,-0.80013126,0.33653995,0.97386247,-0.37163436,0.8519695,-0.49621654,-0.041885156,0.00024546043,1.4316982,-0.18738456,-1.2507656,0.94855946,-0.2395527,-1.1272849,-1.0819931,-1.1634555,1.0935576,-0.48461363,-0.132803,-1.2921853,-0.5023405,0.48808384,1.7156854,0.8633137,-1.2432386,1.4140275,0.32211947,-0.23939252,-0.99190897,-0.77368754,-0.95507455,2.220613,-2.4551103,-0.18831275,-0.22091599,-0.7378862,0.19831152,-0.7046647,-0.24122758,-1.3553712,0.35602015,0.38882458,0.030834302,-0.29832825,-0.07904723,-0.83557504,-2.3543737,0.19748238,-0.18035828,-0.087353684,0.52849156,-1.0823263,-0.22794151,1.8392663,1.3277391,-0.59847105,0.07642726,-0.025176954,-1.6605794,0.7261982,-0.6151058,-0.42584994,-0.041082684,0.019690085,0.6133554,0.5386723,2.190191,-0.8042419,0.348902,-0.16091442,-1.0040951,-0.11126578,0.025436623,-0.58057183,-1.699904,1.5617445,-0.6310157,0.20871228,0.5453127,0.06599923,-1.4644316,0.71430945,0.37864074,-0.9099121,-0.44503066,0.55710065,1.6136792,-1.917365,-0.9774805,-0.21274184,0.6450313,0.021075225,-0.0040217447,0.89748794,-0.014862369,-0.7990397,-0.563971,0.070277706,0.19763167,-0.048213318,-0.16154166,1.4716245,-2.3133569,0.38598323,0.82711124,-0.48326316,0.20643866,-0.2622491,0.07503246,2.2938848,1.9740242,1.1307248
AML-29-001,1.4783753,-0.83770937,-0.6043039,1.2807518,-0.22410432,-0.13242978,2.5260112,0.0011000526,0.34607494,0.39797658,-0.51029754,-1.209255,0.5765796,0.31240043,0.7291374,-1.7633392,-1.3965472,-1.0453866,-0.38771147,0.4559847,0.07521188,-1.0639303,-0.48422945,1.4917333,0.17157531,-2.0860589,-0.27746987,1.3815572,-0.41509095,0.017407669,0.4802774,0.7750351,1.5440905,0.7011212,-0.26616704,0.99629176,-0.44472864,0.17223208,0.08996608,-0.89137596,-1.4929231,1.1305978,-0.0049789636,-0.75421107,-1.4882748,0.14765692,0.40634876,1.6834978,-0.27417836,1.0656836,1.658105,0.40076426,0.43343073,-1.1137469,1.3367009,-0.17687371,-1.0105001,-0.639702,0.625916,-0.04312375,-0.106920175,0.50656205,-0.33228505,1.4643933,0.3757676,-0.33956945,0.5276551,-0.19165882,1.0784423,-1.4720438,0.31334975,-0.32780364,0.48051226,1.4902925,-0.17061621,0.4890668,-1.5930873,-0.7127364,-0.26502377,-0.14127214,-0.28905243,0.12622823,0.8044462,-1.2897688,-0.124491274,-2.3944514,-0.38627514,-0.009199799,-0.3641386,-1.4508934,-0.3990302,1.4426824,0.20128435,-0.17449085,-1.9820036,0.31472814,1.1444641,1.2654685,0.8592845,-0.52073514,-1.5163364,0.58945674,0.76584184,-1.1545235,-2.3094847,-0.56219316,0.74129,1.0169561,0.6600546,0.113845564,-1.4870226,-1.1829209,-0.18329085,-0.78312355,-1.667832,0.37225753,0.4012403,0.44945988,-1.2888649,0.24129309,0.55227023,-0.048345536,-0.30205563,1.0033839,0.86124396,3.8118067,1.0324217,0.4489705
AML-100-001,0.63822216,-0.8647126,-0.36016086,0.67837006,-1.9884528,0.28865808,0.95600295,1.2257017,0.99304724,0.47703725,0.56944585,-1.6208875,1.1429214,-1.0985769,0.4982786,-0.855102,-1.5674921,-0.49382028,1.5354632,0.8310307,-0.054073073,0.93826175,-1.0653411,-0.60496366,0.23352495,0.034090858,0.4819552,2.9421244,1.1505764,-0.9479791,-0.15823604,0.49486932,1.0021192,0.5993333,-0.44729155,-0.8496445,-0.89857936,-0.040310677,0.43217644,-0.13175887,-1.6758835,-0.40172932,-2.25357,-0.53093636,0.19786282,-0.985271,-1.0196509,0.73805934,-1.1422689,-1.4530683,-0.76547855,0.35163113,0.26709062,0.19486544,-1.490353,-0.6377495,0.7590042,-1.0797738,1.2942663,0.78640205,-1.1839024,0.16854012,-0.53599834,1.264134,-0.7714848,-1.4360261,-0.34283853,-0.17930949,-1.3466605,-0.41228193,0.43615496,-0.09559159,1.672841,1.5388694,-1.161883,-0.6422173,-0.69782454,-0.59528327,-1.040739,0.82658786,-0.24000446,-0.26956522,0.31472003,0.4529416,0.055635553,-1.7602856,-0.06577843,-1.2956455,0.18650685,-1.5238423,-0.32161713,1.3924013,0.32974374,0.6561212,1.9605477,1.1241907,-1.3183291,-1.5676448,2.049316,0.18047987,-1.148556,-0.3714516,0.062232874,-1.8130891,-1.5878801,-0.11281786,-1.3461527,1.4557074,1.4475867,0.8858175,-0.37460774,-0.26319402,-1.101594,-0.69605005,-1.4741317,-0.42517236,-0.44556707,0.97349554,0.31417176,-0.35482278,0.12526517,-1.3381636,0.6553177,0.1832679,-0.10738384,1.8508908,0.69145733,-0.07876421
AML-36-001,2.2187014,-0.34456027,-1.7657585,-0.27158043,-1.8447206,0.11141488,0.6406783,0.70501447,0.644559,0.32713383,-1.1138644,-0.35072583,0.19980177,0.024683688,2.4966428,-0.54805326,-0.02762229,-0.54030013,0.9954939,-0.09900916,0.57798994,0.68550235,0.59473276,0.62660205,1.4528648,1.3657134,-0.64012396,1.6831162,0.061889708,0.40642545,0.2750782,0.31176585,1.5658969,-0.8181097,-1.1023945,-0.051707566,1.2746364,1.4392273,0.089942515,-0.19624843,-0.734369,1.7751501,1.5009048,-0.7703204,-0.9638935,-0.2527148,-0.7687067,1.0332111,-0.42350882,-0.6524833,0.25686407,-0.64642787,0.2215124,0.0991984,0.27561906,-0.41911614,-0.13533883,1.0929805,0.45668778,0.276659,0.22582121,0.4985297,-1.8971874,-0.2698784,-1.4395468,-0.12547861,0.9253147,-0.9339205,0.55515116,1.4247288,0.31215158,-1.6507177,0.28578898,0.731242,-2.0622714,-0.00812635,-0.22770117,0.13854027,-0.57567835,-0.9829508,1.5996037,1.0647596,1.803553,-0.18722452,-1.2892522,-1.6504323,-1.3892353,0.5417574,0.652727,-0.45014513,-1.0485421,1.2144973,-0.36147428,-0.5794054,-1.2960495,-0.61540765,-2.2543674,-0.34816727,-0.15403032,-0.17129299,-0.822393,0.18539737,1.9352484,-1.7887027,-1.4061427,-1.8961776,0.5678501,-0.28114915,0.027092382,1.2129225,-0.3072431,-0.082743794,-0.07738547,0.67092484,-0.08511276,-1.2645637,0.78162664,1.7480947,-1.4159478,0.410623,-0.32837862,-0.07576875,0.75924873,1.1895156,0.91192734,1.1665353,1.7619561,1.4641604
AML-30-001,1.0741943,-1.2628952,-0.84861344,1.7248666,-0.07395571,0.82190514,1.5584922,0.10240681,1.2886931,0.57280725,-2.5993872,-1.0359377,0.8558416,-0.48550266,0.5238917,0.3872125,-1.0818876,-1.3423867,0.60705703,0.45404604,0.88307106,0.49054837,-0.10639421,0.023804266,1.0787207,0.36617202,-0.6003762,1.8525672,0.69022906,1.0139059,0.6657645,0.9132665,0.88220286,0.60483253,0.11258419,-0.2786445,-0.5479443,0.42596552,0.57214046,0.28212345,-2.039962,-0.11935066,-1.5876762,-0.683838,-1.4430383,-0.0052627726,0.6526301,1.6248198,-1.9792141,-1.1956302,0.34992152,1.5072094,1.9331683,0.279415,0.18140286,0.5866882,-0.72833437,-0.74395156,0.6924413,1.3597571,-0.87350506,0.27625343,0.06141155,0.19405633,-1.742814,-0.6173623,-0.06091959,-0.5615859,-1.1852956,-0.07589604,0.03283654,0.8151342,1.4078746,2.2445025,-1.009901,1.9634608,0.0009187431,-0.9992034,0.9434335,0.07150208,-0.37277102,-0.58784395,1.1626381,0.096460685,0.3448984,-0.63978344,-1.5591123,0.5944706,-1.391129,-0.64719385,-0.07062994,0.6967796,0.06285157,-0.35263032,0.027538257,-0.13916253,-1.4351976,-1.2072909,0.43494755,-0.42232338,-1.5958022,-0.79722697,0.6544676,-2.1952066,-0.8936266,-0.90661347,-0.29707965,1.4390637,1.206159,0.21244662,-0.90199864,-0.5685337,-1.1778715,-0.39824852,1.133445,-0.06691919,1.4523845,-0.3021651,-0.6981351,-0.14871511,2.5142167,1.0233333,0.21615241,1.5353976,-0.050583057,0.7820601,1.3012542,0.034192532
AML-50-001,2.6800609,-1.7287906,-1.0952306,0.4044493,-2.018891,-0.5910721,2.4526527,0.58212274,-0.39832687,-0.18519993,0.52236336,0.6648489,0.82598996,0.17358088,2.6548398,0.16028124,-0.0024690211,-0.021689823,1.5582465,0.5722347,1.1271222,0.00071559125,-0.038785413,0.3570408,1.2704787,1.0004597,0.5655411,0.8281732,0.5293935,0.15794256,0.36528805,1.5581992,1.1833304,-0.011336605,0.021550728,-0.46683586,0.45480552,2.1768417,1.2519245,-0.67736995,-0.38199914,1.0724534,1.445374,-0.78579146,-0.420314,-0.32785735,-0.6478729,0.93788654,-0.27579027,-0.994376,1.2171901,0.31574434,0.7409632,0.60208833,0.1697216,1.4205611,0.09673983,0.86959857,0.7544249,0.4985333,1.0392191,1.406388,-0.5693783,-0.88791037,-0.09482966,-0.18785359,1.0264056,-1.0081284,-0.16622733,0.26621842,-0.12466242,0.32809812,0.22176698,1.4071538,-1.1040643,1.1353612,-0.15377976,0.55670744,-0.92996335,-0.48954746,0.69843024,1.8250917,1.0302511,1.1401088,-0.21033993,-1.5828506,-2.6990504,0.15642384,1.9332173,-0.9586332,-0.20389375,1.7251633,-0.6852154,-0.5272559,-1.2958101,-0.69562787,-0.47563645,0.5636765,0.47102624,-0.278023,-0.21889634,-0.15459253,0.27201593,-0.78264654,-1.4226627,-1.7060051,-1.6218352,0.7693211,1.0269868,-0.11016428,-0.94476104,-0.07989279,1.6868885,-0.0059039127,-0.68512005,-2.1451876,0.6247281,0.15501726,-0.09649536,-0.32123828,-0.10356217,0.7554262,0.32106903,-0.020843918,0.2549185,1.7181972,1.4175047,0.018685337
AML-81-001,1.7220984,-1.4598765,-0.5000136,1.0980693,-2.3387141,0.85733515,0.739132,1.0878861,-0.10349276,1.2939975,-1.5146639,-0.10784245,0.89793813,-0.15775882,2.4586399,-0.028024485,-1.3833538,0.6694255,0.8456793,0.32486248,0.49005345,1.1709676,0.29958817,-0.22577436,1.6924798,-0.2985938,-0.7670652,1.606425,-0.54219407,-1.0501657,-0.35739568,-0.4809443,0.6191399,-1.1181654,-1.1480583,-0.9116068,-1.1035228,0.9401316,0.7035348,0.081056856,-1.1348335,0.2946341,0.9958224,-0.62874544,0.13797718,-0.4783442,-0.14121917,1.5358728,-0.32750344,-0.4077069,-0.10683463,-0.70219,-0.11435283,-0.14806108,0.52910745,-0.09114471,0.11653651,1.2463913,0.18279,0.10671263,-0.17584886,0.06345855,-0.45980632,-0.37679392,-0.69354326,-0.94376457,-0.8302252,-1.97484,0.8699834,0.7541465,2.1309357,-1.3487271,-0.25923005,0.05318669,-1.7224611,0.025037127,0.4070909,-0.4068072,-0.9811526,0.052055698,-0.06408111,1.2958952,1.2389355,-1.2514719,0.3347706,-0.9971269,-1.9344225,0.5008798,0.8980475,-0.011461951,-1.6882898,1.5719044,0.069529876,-0.008423781,-0.12299434,-0.46744522,-0.7120895,-0.6814158,1.018168,0.22488905,-0.3835639,1.4166205,2.1058505,-1.1986834,-1.0032815,-1.6584418,0.06364353,1.455671,1.4043452,0.6437879,0.38312796,-0.735643,-0.4543497,-0.6408451,-0.33193442,-1.2987025,-0.3601401,1.4264101,-2.264689,-0.88120633,-0.015473255,0.32343212,-0.16399984,-1.0158955,0.4555452,1.9345906,2.374266,0.6725026
AML-33-001,1.3914586,-1.2889848,0.21402512,1.3332597,1.4732095,0.22964023,0.8664496,1.0712769,0.015428723,0.76162225,-1.6971153,-0.7607372,-0.29721898,0.8101416,0.5546185,0.2470548,-1.1541137,-1.0376927,-1.418087,-0.120765276,1.2647723,-0.33668995,-1.7435838,-0.27559432,0.38482368,-1.054844,-0.09886942,1.6938499,0.30861726,-0.2933506,1.7182449,-0.2606641,1.094844,1.5322851,-1.2182996,-0.71399075,1.2710047,-0.1324952,0.36822927,0.880827,-1.5023518,1.5881047,-0.49713346,0.16103639,-1.3113487,0.18582436,-1.2927266,0.304331,-0.8463402,0.4982573,0.36804968,0.41579962,1.3580135,-0.96305174,0.7067147,-0.17604935,-2.2279744,0.08289931,-0.2014445,-0.083644636,1.6050549,-0.44907153,-1.0100466,0.22037566,-0.42901552,-0.10370569,0.014424481,0.8599102,-0.99384314,-0.9457795,-0.028757548,-0.64809155,1.0240906,2.4367092,0.5761426,0.17259148,-0.22807246,-1.3033055,0.42243433,0.47553435,1.2178524,0.84408677,1.2500967,0.002731674,0.37788504,-1.9391977,0.09394875,-1.350553,0.20604515,-0.5797713,-0.5348704,1.4707189,0.6762617,-1.7451485,-0.28817475,0.23620701,0.39774486,0.5302578,1.0558875,0.23046522,-0.8765067,-1.5626425,1.3802004,-1.494654,-1.491636,-0.92137086,-0.20322785,0.17093024,0.69645643,0.57579046,-0.5618048,-0.2574622,0.5708269,1.0514008,0.13902561,0.0837964,0.13963653,1.6152047,-1.2464088,-1.357688,0.3889634,1.1241704,0.49275985,-0.17275399,-0.4366073,3.1571574,2.284661,0.22925049
AML-43-001,2.3780324,-1.8403898,0.7442951,0.29872587,-0.9026972,-0.32879692,1.2393507,-1.3958801,0.79387575,1.214115,-0.25375834,0.633189,1.1725237,0.49922433,1.8027391,-1.0057802,1.2809293,-0.4941987,-0.6138777,-0.011623635,1.0420709,0.85510164,0.10631363,0.16213925,1.0221375,-1.1399981,0.15016684,1.5003172,0.4778868,0.052099895,1.1940541,0.018544495,0.73983,-0.274987,1.3643064,1.1305459,-1.4051954,-0.8999779,0.08294206,-0.29336205,-1.2566283,1.085718,0.40652102,-0.33544785,0.5048028,-1.3108592,0.3817467,2.197617,-0.73316085,-0.43207327,1.223643,1.0898609,0.21367785,-0.4010342,-1.4462601,0.17484388,0.048542187,-0.6039254,0.7309939,0.34994707,-0.8600886,-1.6261678,-0.48174676,0.49462393,-0.7942889,0.09462433,-0.49513063,-1.0253305,0.20666446,-0.50355905,-0.12197707,-0.12067602,0.47077826,-0.8872429,-1.2025009,-0.11599979,-1.1119485,0.06883456,-0.4429979,0.7224861,0.4965718,0.90479976,0.3536588,-0.014448119,-0.23886526,-0.53051215,-1.9569291,-1.0387933,-0.42195484,-1.7524078,0.19979057,0.97665936,-0.048705656,-0.41454682,1.6562583,1.4503095,-0.051142037,0.76070786,-0.15688984,0.5134225,-1.0287602,1.3084477,2.5756073,0.16914657,-2.5901153,0.41062155,-0.90620154,0.40758458,-0.9075903,-1.2248356,-0.33602253,0.34203443,0.43254262,-0.4105281,0.07125997,-1.2153974,1.480212,1.5319278,-0.059539817,-0.2787609,1.3030449,0.025003577,0.913413,-1.4628704,0.21478494,2.197538,2.662452,1.2680701
AML-98-001,2.2199523,-1.8062433,1.2223169,-0.17701513,0.67068905,1.0258753,1.2931476,0.4784684,1.028637,1.333058,-0.47597915,-1.1478814,0.6651484,1.8220929,0.35392404,-0.16954057,0.9200736,0.45644975,-0.065533005,-0.6318625,1.1134449,-0.50952595,-0.32642743,0.3262764,0.34950933,-1.357826,-0.8647571,1.8784401,-0.41956368,-0.4691177,0.17221172,0.30741847,1.242405,-0.59499365,1.2302033,1.8172512,0.18081726,-0.78762776,0.33988902,-2.0291696,-1.3816655,-0.08660785,-0.35212573,0.057151534,-2.1099489,-0.3250854,-1.2647313,1.6828755,-0.57420343,-0.67388266,-0.49485517,0.6333816,-0.17785038,-0.48437357,-1.3780905,0.53304553,-1.0855594,-0.27207208,0.68313897,-0.92101353,0.19703676,-0.37124193,-1.4515326,0.16639486,-0.9806993,-0.16042191,1.4029218,-1.3248732,-0.17275447,1.1064092,-0.27387744,0.48712742,0.47828066,1.086773,-0.8300414,0.09977188,0.22773288,-1.1040313,-1.7876394,0.5434973,-0.25456572,0.9815025,0.5773019,0.7349967,-0.068056926,-1.2535788,-0.81190944,-1.2658613,-0.99640554,-0.73797154,-0.25749016,2.847541,0.98806065,0.5012075,-0.92602825,-0.5800475,-0.6915647,1.0908499,1.1242125,0.18036658,-1.7099833,-0.11606774,0.43094543,-1.1688253,-0.55011725,-1.1980056,-0.73309994,1.0872272,0.9683172,-0.6812911,-1.283658,0.70109,-0.4027784,0.2885403,-0.1762165,-0.7310768,0.55544406,2.1180377,0.9292623,-0.3044701,-0.7592059,0.31198645,-0.39843157,-0.9988438,0.02603468,0.9375168,3.0220308,1.1761616
AML-122-001,3.1807332,-2.5101905,1.4849402,0.87837905,-0.63484657,1.1434774,1.8007951,-0.21681675,-0.7307078,1.0310231,0.1186174,-0.0031930828,1.8952682,0.72557604,1.6096677,-0.21509194,-0.7709984,-1.9262937,0.4744578,-0.9193377,0.20295757,0.007251422,-0.04124576,0.17090093,1.0320212,0.45668685,0.15514581,0.7229169,-0.19777165,-0.42337477,0.64678735,0.46512756,1.5479941,0.42567593,0.19805996,-0.2628459,0.18741114,0.41670692,1.4790087,-0.5467748,-0.6947433,0.52013606,-1.1924093,0.23232937,-0.6359283,-0.144933,-0.18455288,0.6388077,0.7851316,0.4321896,0.38879514,1.249114,1.5279061,0.61689764,-0.14891265,-1.2844837,-0.4199625,0.521221,-0.67967993,1.380584,1.0724866,-0.7091559,-0.43006474,-0.7386801,-0.12466647,0.25776714,1.9127394,0.16711211,-1.1797421,-0.041727968,0.20813777,0.71805125,0.88450444,1.0701916,-0.07050002,1.6071113,-0.55284953,-0.9484133,-1.4828491,-1.3800228,-0.590089,0.21483803,0.8667543,-0.16537651,0.95141757,-0.817482,-2.2771745,0.3067266,-1.0676515,0.440306,0.32796267,1.8221878,1.266279,-0.6708858,-0.7043137,0.7964898,-1.4511684,0.75792855,0.8194848,-0.98744833,-1.6664786,-0.60834885,0.31099576,-0.70454276,-0.8308682,0.713539,-1.6606094,-0.28554505,0.41071397,-0.4963136,0.6038618,-0.77572834,-0.06068606,0.017438214,0.54896235,-2.6288447,-0.57848805,0.14692312,-1.8406259,-0.99671096,-0.27795318,-0.6338037,0.37973058,1.5196832,0.65005773,2.0421953,1.3458058,0.4934675
AML-119-001,2.4526386,-2.683295,0.32573652,0.57669467,-1.2341466,0.22272177,1.9983902,0.43289664,0.28932583,0.6372857,0.12418911,0.3711921,0.98546463,0.46586555,1.468146,-0.6913061,0.085723415,-1.7581806,0.8011878,-0.8280379,0.66150206,-1.5234048,0.23139305,-0.44879696,1.3159978,0.7860106,-1.1301556,0.5682373,1.1857508,-0.33761612,0.5429575,-0.39217526,0.6419127,-0.24692735,-0.25707763,-0.0659104,-0.55186933,0.6002821,0.997428,0.26226082,-1.176716,-0.08783759,-0.54970217,-0.66454864,-0.5664162,0.16167755,0.02044916,-0.2521081,0.4285573,0.824444,0.41154057,2.1175385,0.9114733,1.0766114,0.71912664,-1.1068978,0.29239553,-1.0255595,0.33450845,2.0997312,0.026004951,0.4927908,-1.1132368,-1.6044483,-0.2656461,-0.14903787,1.4765555,0.43683448,-0.41009083,0.710938,-0.5567274,0.55608654,-0.18114495,1.0129954,-0.34638396,1.9821769,-1.1440212,-0.9309691,-0.89862293,-0.30042455,-1.4242473,0.7470789,0.8958909,0.12515543,1.432651,-0.96505004,-1.1865084,0.06362364,-1.3119851,-0.06913861,-0.71960527,1.6876657,0.5510898,-1.2718222,-0.22928718,-0.3449263,0.3449109,1.3077531,-0.1799396,-1.1246318,-0.52580124,-0.3548151,0.5487725,0.24217124,-1.8767356,-0.89741737,-1.4636722,-0.5906553,-0.26757795,0.34638432,-0.16909309,-1.38864,0.21594514,-0.0029637294,-0.059333157,-2.000061,0.53474677,-0.33267683,-1.235453,-0.66045123,-0.9908335,-1.365522,1.5154618,0.4386678,1.203411,1.3990319,3.4708436,0.10139083
AML-108-001,1.533579,-2.6437244,-0.05134773,0.5587591,-0.4827457,1.2978064,2.4018056,-1.501749,0.8614373,1.8785667,-0.4224988,-0.31129587,-0.46870908,0.7943932,0.7544172,0.580117,-0.6192104,0.3140812,0.80779254,-0.3012408,1.8254769,-0.02254927,0.4280408,0.39399704,0.87097716,-0.4628526,-0.17441604,1.8731291,0.7980975,-0.051267415,0.15810819,0.7690826,1.188805,0.12103571,-1.2086511,-0.80241305,-0.59840363,-0.63088316,1.0585715,-0.13260092,-1.4443498,0.6741296,-0.8666283,-0.48647803,-1.2905352,-1.0614129,-0.3840862,0.24527106,-0.9267068,-0.22788173,0.34244874,0.37037233,1.2777672,0.9362439,1.2759733,-0.508961,-0.46817675,0.2069237,1.2695336,0.92166615,0.4948436,-0.7866218,1.229907,-0.39274737,0.5097797,0.19982733,1.4625365,-1.017212,-0.50275624,-0.40678862,-0.51765674,0.1251388,1.3476853,2.0491502,-0.80110186,0.7169772,-0.41028845,0.5586672,-1.7117517,-0.50413287,0.13132903,0.38039815,1.3164557,-0.42679596,1.1879163,-3.5359674,-0.9765641,-0.34109622,0.2190796,-1.0732727,-0.55948615,1.3643873,-1.1391551,-0.8625565,0.46409762,1.7774225,0.006865964,0.22201426,0.41428763,1.3520888,-0.101054415,-1.5399822,0.27968836,-0.5139611,-1.7891852,0.3548054,-1.0199788,0.8814935,-0.02167172,1.638254,-0.62448525,-2.0180664,0.12655184,0.556433,-1.0457566,-0.7922804,-1.1128312,0.67317116,-0.43222037,-0.15939955,0.555461,-0.06780318,0.85979027,0.19356027,-0.7539227,2.0888581,0.338634,0.80621433
AML-77-001,2.04961,-1.6352649,0.12679656,0.22756094,-0.4992897,0.6866116,1.4718127,0.5556307,0.18351032,0.4466793,-1.6200198,0.94478256,1.6650854,-0.86130214,1.5234814,-1.0824808,-0.36299798,0.25523043,0.22980446,-0.8305247,0.27633584,-2.1774871,-0.92726654,-0.25725386,0.7413712,-0.4161466,-0.21542834,2.953675,-0.5201689,-0.84656715,1.0798267,0.5527177,-0.7583014,1.4413772,0.10925139,-1.0384791,-0.5414943,0.21037528,1.0935198,0.34231034,-3.0025172,1.3110616,0.5630536,-1.1758096,-1.4970552,-0.23690385,-0.949431,1.1043998,0.47021413,0.44211477,0.7372685,0.2546309,0.8536334,-1.2704889,-1.2003338,-0.6046691,-0.30022955,-0.64545757,1.2385851,0.1584851,-0.83380663,-0.7471195,-0.04616451,1.2159148,-1.7869743,0.93877053,0.044860266,0.503426,-0.22743045,-0.28969553,-1.5171944,0.35643753,0.11319412,0.38334602,-0.48357254,-0.061820462,0.3993156,-2.1196682,-1.3362432,0.22086795,-0.3513171,2.0756474,1.4296088,0.026286075,-0.8863077,0.2030876,-0.6705225,-0.3505654,-0.39109185,-0.11299447,-0.08967316,0.1781987,0.65442497,-1.8649068,0.6364963,0.56561315,-1.6515553,-0.6244977,1.9370626,0.06776746,-0.9347904,-0.50445664,1.2527906,-0.86173195,-2.1592927,-2.0391688,0.3349019,0.7304647,-0.75948834,0.1894591,0.009316357,-0.58153844,-0.05757729,0.035458293,-0.1124737,0.110195704,0.20248933,-0.42748046,-0.75280595,1.0648711,1.4181732,0.4376473,0.2997788,0.71848595,0.576235,1.7767582,-0.27236205,0.8366506
AML-93-001,0.49020445,-1.1800865,0.31705764,0.05208658,-1.6862587,-0.030777868,2.679641,0.15081678,0.45492777,-0.22316384,-2.0602667,0.88123107,0.2577772,-1.0735174,0.4756997,0.41141644,-0.97993654,0.12024093,0.8586629,-0.3387051,0.3495606,0.05055596,-0.11242655,-0.18721882,0.59728146,-0.5826655,-0.7551913,2.990657,0.49559936,-0.65525216,1.5537211,0.6380115,1.1104456,0.4716912,-1.1433998,-1.1643552,0.42438585,-0.016873345,1.6651531,-0.8867788,-1.0643775,1.5292813,-0.9590798,-0.9144789,-0.12149171,-1.5326008,-0.0329743,1.0260556,-0.2796986,-0.0060557323,1.5540293,0.35955808,1.7148703,-0.16422713,0.437831,-0.5527541,-1.4636214,-0.059989393,0.75982904,-0.39972982,0.8100284,-0.5922169,0.026302816,2.341998,-0.4222293,0.344301,1.3909353,-1.4634676,-0.4183076,-0.3213224,-0.2688251,1.3515681,0.19502422,1.4081402,-0.5231924,-1.0873086,-0.34861377,-0.80292517,-0.3477462,0.26334265,0.21217275,1.4406255,2.2714193,-0.45988926,0.33176297,-0.561443,-0.5555014,-0.28931078,0.19223529,-0.8284557,-0.4609716,1.5717515,0.41759828,-0.33443072,1.2233808,0.31395647,-1.134475,0.7962447,1.4192082,0.28683516,-1.2095779,-1.6947494,0.818498,-0.051060516,-2.603567,-0.35631827,-0.8782954,0.5854337,-1.0802342,0.16264415,-1.8141606,-1.9207914,0.026377102,-0.9617096,-1.9557608,-0.5402359,-0.49523872,1.0293097,-1.0266745,0.5218676,0.21788521,0.5547879,0.5898911,-0.71589065,1.0451779,1.2539972,0.36084393,0.40975347
AML-59-001,0.44597763,-2.3539147,0.13914292,0.3485707,-0.60022354,0.9005051,0.7791645,1.0999234,0.4553602,0.3790312,-1.1323858,-2.7259817,-0.298349,0.6800833,1.8355045,0.06513501,0.20133497,-0.49177128,0.32272106,-0.38522458,0.5166196,-1.0315737,-0.46908072,-0.69309646,0.87450343,-0.83711433,-0.26013002,2.3176982,0.022256559,-0.18019032,0.19203605,-0.38730067,0.9680191,-0.66123104,-0.5826128,0.27632502,0.012036595,0.6036228,0.75026864,-0.8970035,-0.84144324,1.0789937,-0.24376608,-2.2837446,-1.6098068,0.00027087828,-2.3846757,1.3353028,-0.4439105,1.0106938,-0.07847657,0.88574976,0.6742383,0.82897353,-0.09581735,0.12905428,0.07880885,1.939919,-0.00642866,0.92310226,-0.9952666,0.80446315,-1.6131209,-0.78046876,0.12553157,-0.5903138,-0.040447354,1.3086083,-0.5099116,-0.4621021,-0.7645149,0.13370833,-0.022918567,0.11053956,-0.83870846,0.2158679,-1.7643214,-1.8698554,0.95188004,-0.7626909,-0.38312972,-0.18007469,-1.0552218,-0.0368972,-0.18514684,-0.51233125,-0.68798554,0.46213898,-0.3565158,0.20964606,-0.8557539,0.94068,1.3051317,-0.60359216,0.40971693,-0.3475634,-0.72993726,1.4286717,-1.0956199,0.00968153,-0.26938328,-0.015079873,1.1052834,-0.5149212,-2.067582,-0.5239373,-1.0000355,1.0287386,-0.62662214,-2.15011,-2.0777907,-0.34261194,0.2986213,-0.37891436,-1.1519095,0.3517063,-0.28929287,2.0399609,-0.3556599,-0.8168218,1.1165941,1.9276313,-0.20565483,-0.3760058,-0.4322993,1.591396,2.8375025,0.7780749
AML-55-001,1.7704856,-1.9648675,0.20350194,0.5514489,-0.74804246,-0.90426666,1.158237,1.1749119,0.6441744,1.6066853,-1.2096672,-1.543796,0.37137577,0.5357238,0.0474138,-1.4126719,-0.7043152,-1.1916332,-0.09132139,0.47565538,0.42350402,-1.0857534,-0.5353124,-0.09192961,0.8175744,-1.0584503,-1.1159576,1.9140848,-0.26455912,-0.3149707,0.29125315,0.21361957,1.7817907,-0.10191089,-1.3114367,0.13845018,-0.15568823,-0.019374302,-0.45273477,-0.58195806,-2.483809,2.9736786,-0.32495067,-1.5178295,-1.208743,0.4432329,-1.6052382,0.85368097,-0.65187496,0.87327933,1.3178971,0.03873998,0.54837996,-0.26429167,-0.4083806,-0.7539574,-0.26550877,0.42904797,-0.47654262,0.23873034,0.0041148555,0.3502328,-0.058534235,0.9075717,0.17004943,-0.032623347,0.001568355,0.42667392,0.5772748,0.30374557,-1.0226356,0.4034824,-0.8894424,0.97806597,-0.16567609,0.09095831,-0.4988063,-0.76263076,0.94395393,0.82079524,-0.46107692,0.097711936,-0.74306726,0.73415923,-0.4433537,-0.04750937,0.22527201,0.09527154,-0.15313232,-1.3268042,-1.6090014,3.2026455,-1.2058336,-1.3063878,0.2563702,0.604719,0.04558698,0.34903902,0.09818132,-0.56756467,-0.6282077,-0.31786755,0.2577624,0.20027424,-2.1669028,-1.6286111,-0.6841217,1.0881662,0.18025455,-0.5620089,0.02522152,-0.8746754,0.11916801,0.6143495,-1.9653443,-0.5065499,0.6570078,-0.25902733,-1.524116,-0.8645388,0.66966563,0.75274163,-0.02355914,0.38813934,-0.1997838,2.7292917,2.8385782,1.1456982
AML-111-001,2.2542408,-0.15467522,0.22835162,0.49693084,-0.14138018,-0.2295666,0.7785912,0.5626265,0.47078854,0.78137594,-2.2025576,0.024304345,-0.20179212,0.3247872,0.50518614,-0.0638489,0.79175466,0.038053207,-0.16824277,-1.1126411,0.4771271,0.34040043,-0.7634609,0.23594531,-0.13953589,-0.45356423,0.3149575,1.9711568,-0.7620778,-0.14612035,0.35054126,0.22975619,0.6093356,0.08479858,-0.6919059,0.5729807,0.29379693,0.5364087,1.4722834,-0.4025711,-2.4480896,1.6192079,-0.4126779,-0.44108513,-0.3909373,-0.80710024,-0.23586957,1.6802958,-0.6784036,0.665194,1.5403035,0.5033151,-0.5795538,0.13524248,-1.3242307,1.2426435,0.21652915,-0.832639,0.22272217,-0.12930378,-0.5724853,-2.8386786,-0.3628181,-0.010107232,-0.3090545,0.0043340866,-0.22929864,-0.8416717,-0.52409285,0.13054451,-1.1829846,-1.164914,-0.04846331,-0.32392046,-0.53050697,0.7629784,-1.5445786,-0.17773372,-1.9904004,-0.49179742,0.16173474,1.1769403,-0.5104966,0.93794554,0.7247521,0.19150768,-1.8072308,-0.2741016,-0.8441303,-1.6902287,-0.818547,2.0337198,0.3433365,0.45832634,-1.1425548,-0.8957482,-0.8653326,1.8400606,0.5215024,0.3318345,-0.99537843,-0.8537301,0.38761488,-0.40262544,-1.7234805,0.04324951,-1.5961066,1.9009744,-0.76212186,-1.1105535,-0.18607397,-0.9466898,-0.15648746,0.67812043,-1.0744768,-1.0218074,-0.47451293,1.1726594,-0.70376897,-0.6148817,0.23291303,1.6105096,-0.6248865,2.0254064,1.1139978,2.8201473,2.137573,1.157033
AML-112-001,0.78393185,-0.8263131,-0.28297555,0.8984194,-2.4850996,-0.472652,1.1359601,0.75476503,-0.7527331,0.5072229,-1.0117303,-0.8301142,0.16381623,1.12844,0.6761512,0.5122185,-0.27098784,-0.20204604,0.11246273,0.24559964,-1.077823,-0.91950905,0.70120436,-0.4378214,0.4358084,0.01869644,0.17505847,1.3799058,0.68578917,-0.26605007,0.8534469,0.4957822,2.27992,-0.63426006,0.80090326,-1.219835,-0.48794737,0.50056154,-0.14575402,-0.85250217,-2.3567717,-0.36857927,-0.5671395,-0.8738848,-0.16902804,-0.61168545,-0.79191965,2.892708,-0.79445803,-0.47372255,0.722396,0.82079697,2.217095,1.318259,-1.0076336,-0.91055787,-0.5804537,0.88017404,1.0167397,0.5212801,-0.038191795,0.023523409,-2.019269,0.46727717,-0.20753844,0.02321932,0.57045776,0.27732176,-0.1536639,0.3362178,-0.35227174,0.98156154,1.241245,1.8559228,-0.7108454,0.4345639,0.9679515,-0.70684725,-0.10323617,0.44782868,-1.3443546,-0.55550706,-0.22931284,0.33198565,-0.40477392,-0.75099134,-1.0794733,-0.5862848,0.21220714,-1.2439021,-1.0538923,0.578368,-1.4361237,-0.980705,1.1596875,1.3156221,-0.52559423,0.76851183,1.9715054,1.0085071,-1.8766552,0.39344114,0.4140057,-1.2741007,-0.98348033,0.4419447,-1.2271441,0.82101995,-0.16917193,-0.046805784,-1.3982625,0.64095336,-0.07656451,-0.7622318,-1.6520084,-2.4957628,-1.308533,1.2587659,-1.1940109,-1.2692442,-1.0376908,0.81463695,0.67525005,-0.43394494,0.8630941,0.77819914,2.0625937,0.76091367
AML-94-001,1.8778479,-1.7706645,1.2723637,0.25688386,-1.851347,0.7608277,2.8800066,1.19548,0.5010952,-0.25213212,-2.000057,-0.09414225,-1.2862622,-0.11745166,0.756894,0.13123325,-0.42090404,-0.49105278,-0.4525426,0.78587484,-0.43064088,-0.0025838208,1.5726218,-0.92763966,1.1623273,-0.059767596,-0.38735256,2.7408533,1.5770361,-0.676623,1.6141483,-0.2222597,1.6558207,1.2188677,-0.17610359,-0.2904825,-0.004442826,0.08972394,1.6861088,0.34961134,-1.362046,0.4497987,0.029056067,-0.9876554,-0.49128008,-1.706229,-0.13071188,0.9367755,-0.58310634,1.0110605,-0.2611567,0.65103674,0.2900291,0.13290471,-0.27708995,-0.8532078,-0.50352037,-0.0070780646,0.17790931,0.9005747,0.26991785,1.3566035,-1.0786299,0.5816,-0.73988014,-0.7684018,1.0368698,-1.2048507,-0.8003707,0.033742823,-1.366956,1.1146212,-0.08842064,0.73676604,-0.47058025,0.10824512,-0.52536726,0.17136517,-1.4961748,0.113769844,1.4401469,-0.36564976,0.7016245,-0.6537807,-0.42927396,-0.2068327,-0.4757821,-0.5459001,-0.47710323,0.038782276,-1.76179,2.9663546,-0.9846453,-1.0448407,0.73674864,-0.33395964,-0.39313453,0.48331678,0.65319663,-0.62225646,-0.9466876,-0.5003876,1.227777,-0.25727078,-1.847673,-0.04802454,-0.83838505,0.4257791,0.26447353,-0.6318433,-0.41516626,-1.2400618,0.3333265,-0.26243925,-2.208835,0.11478749,0.111817226,0.7211842,-1.2797753,0.3043704,-1.2498212,-0.22684845,1.2824152,-1.841506,0.24816927,1.3847405,1.5385472,0.2806118
AML-35-001,0.933306,-0.17392473,-0.47145122,-0.99753374,-0.8423822,0.3344046,1.044394,-0.3458189,1.185682,1.2184912,-0.2687264,-1.0556839,1.9121572,0.29861686,1.9870375,-1.0015782,-0.17026296,0.94841754,0.5961084,-0.18122229,0.6237323,0.55403584,-0.34643275,-0.58782893,0.37741977,-0.023280818,1.0255858,1.0405781,0.8127176,-0.114896655,-0.99767625,-0.6977553,0.9425214,0.88685745,0.0027466211,0.33271945,-1.1796505,0.6405754,0.49202323,-1.7620282,-1.2311267,0.29236943,-0.36529818,0.23564507,-2.0456345,-0.45848376,-0.26033875,1.281155,-0.47555697,-1.4827876,-1.280808,0.6194047,-0.52577174,-0.6506144,-1.2493767,-0.28349254,0.39356345,0.23023385,-0.2156226,0.633327,0.06776221,-0.6137566,-3.1278377,1.0988792,-1.3790848,-0.35844567,-0.0085952915,-0.053685743,0.64714855,1.7405978,0.59448946,0.5554163,-0.76899034,0.62508047,-0.67676,1.089396,-3.5549624,-0.084835015,-1.3677852,0.5709671,0.9693047,0.5486134,1.7177161,0.21466136,0.13804549,-1.0085524,-1.4144242,-0.44875237,-0.37151262,-0.19758616,-1.1428695,1.8666967,-0.65455663,-0.59957784,-0.18883519,0.23110417,-1.405702,-0.7489955,0.060646214,0.31892344,-1.5691159,-0.023555929,1.4096425,-1.7630844,-0.29901582,-1.07647,-0.73037934,1.1281567,-0.55310386,0.20584568,-0.31454632,-1.517043,-1.313401,1.3724953,0.5946348,-0.40020034,0.882307,1.3608745,-1.9791285,-0.96320224,1.2191706,-0.26431194,0.5113268,-1.1708558,0.4153644,1.2635142,0.37011346,0.94289595
AML-19-001,2.113744,-1.2222394,0.49349385,0.16340952,-0.5762189,0.4173891,1.3089933,1.834907,-0.21202897,1.8979728,-1.491276,-1.0758842,1.2707999,1.0871401,2.30938,-0.95155245,-0.39466065,0.28928205,-0.029376,0.504923,1.9246631,-0.1823797,-2.0785363,-1.5492595,-0.7351747,-1.1413498,-0.13869983,1.0796971,0.22157337,-0.6319114,1.3485333,0.35757723,1.273039,0.46477142,0.81143034,0.7558368,-0.5927915,0.33484113,-0.69882435,0.18246,-0.9348421,0.80275166,-2.2090607,0.20735528,-1.294907,-1.2235138,-0.5709543,1.9570059,-0.42034692,0.4181861,0.8302095,0.3757439,-1.9538275,-0.2523244,-0.42592698,0.27521676,0.525295,0.12553835,-1.1146609,-0.6311279,-0.16277544,-0.6557171,-0.8777797,-0.6646179,0.20667467,-0.3279215,-0.38055167,-0.18089761,0.11469482,-0.57165366,-1.6908059,-1.194737,0.33596453,0.1482987,0.17990425,0.22690798,-0.9271233,-0.9079349,-0.036409885,-0.0790931,0.6412041,0.8334107,1.3272759,-1.2854136,-0.7208092,-0.37662762,-2.1920874,-0.0045572394,-0.7511123,-0.29833144,0.3077595,0.47889018,0.34353566,-0.14017107,-0.16428104,-0.39344934,-0.8665085,1.5909553,0.22880849,1.6797141,-0.32616863,0.6248474,0.15263389,0.119693294,-0.62849927,0.64837915,-0.8803633,1.2493579,0.71786994,0.36302415,-0.92106926,-0.5945629,0.37017915,0.32185337,-0.48729873,-1.0643058,-0.5306052,2.1098626,0.3609483,-0.97078776,0.8575322,0.77932084,0.76298547,-1.081372,0.08957093,2.5030236,3.180984,0.5066253
AML-121-001,2.004867,-1.7295768,-0.19054998,2.0597534,-1.0760401,1.4449457,-0.24794638,1.2504514,0.060405623,1.3265314,-0.5202382,-0.028493559,-0.40456027,-0.5866471,0.095904745,0.98384076,0.38450202,-0.0063608265,1.00093,-0.17803122,0.1543947,0.5655705,0.02427645,0.032297086,1.1452413,-0.677816,-0.30934095,1.3667089,0.3857697,-0.05877409,0.61712724,0.88066554,0.7860965,0.22126372,0.48077363,-0.81028914,-1.4934703,0.75224483,0.46830153,0.22504877,-2.687185,-0.7136998,-0.56420547,-0.51699215,-1.7705115,-0.6480962,0.9948853,1.085604,0.5909897,-0.6120388,0.27517653,0.18233162,1.6196429,1.6373303,0.94073665,0.63784987,-0.73072785,0.28340855,-0.24075945,0.9817598,0.31801808,0.29055464,-0.5744297,0.3135718,1.2619892,-0.18949609,-1.0092475,-0.84757066,-0.15765162,0.47954738,0.07258519,-0.022941574,0.866253,1.353959,-1.1732302,1.2074333,0.8784392,0.4061495,-0.075208195,-0.16951546,-1.0577352,0.75573325,-0.23952678,0.05839594,1.1650711,-1.0809219,-3.2615855,1.0317117,0.42800266,-0.83978766,-0.25844163,1.3868661,-0.04488792,-0.26142797,0.29612055,-0.5357104,0.55229884,-1.2517962,1.7510043,-0.69150776,0.2445437,2.0903604,0.15896289,-0.16316332,-0.7140639,-1.7797743,-1.3222795,1.6300064,0.23342547,-1.2536845,-0.31960928,-0.113720275,-1.132734,-0.1975952,-0.6930085,-1.821656,-1.156264,0.50578684,-1.8955351,-0.35356647,1.0495915,1.2095039,0.48488045,-1.8216426,0.034215607,1.745832,2.037173,-0.7891648
AML-110-001,1.4589223,-2.15527,-0.097820364,0.60487604,-0.5235419,0.76156366,0.3141772,0.31208372,0.21875836,0.97370446,-1.1907501,-0.31532905,1.2221184,1.5938703,0.35182875,-0.43015668,-0.99827045,0.026490968,0.011991372,0.08823729,-0.30823973,-1.4773728,0.03725778,0.553336,2.0907812,-0.3654301,0.45904863,1.6035063,-0.30652314,-2.1644433,1.3936573,0.22287673,-0.25578478,0.9885288,0.62561184,-1.1261849,0.14643121,0.48305824,1.1415226,0.24287252,0.16914138,0.017104361,-1.9966731,-0.49548277,-0.3609617,0.15759774,1.4569099,2.338873,0.034908473,-0.93236446,1.0072694,0.64194375,0.13176952,-0.53402454,-2.0577633,-0.024331493,-0.41353217,-0.13071728,-0.44301993,0.5484982,1.2114394,1.3481829,-1.2287512,-0.1185386,-1.19978,-0.6982482,-1.0661772,-1.1462137,1.04663,1.0040607,-1.0563861,-0.10088623,1.4645582,0.31202054,-0.83253115,0.5462838,-0.65795785,-0.22042574,-0.76573235,-2.0630043,-0.21437569,0.7861298,1.384727,-1.0078138,0.59650743,-1.7522154,-1.300444,0.6251926,-0.06849511,-0.9801677,-0.75977284,1.2704192,-0.19094922,-0.3346471,0.62646776,-0.5098947,0.5474977,1.9158261,0.8922525,-0.5985587,1.1191429,0.022450984,0.27916428,-0.08110266,-1.5500432,-1.1090136,-1.3093915,1.4157695,0.25045806,-0.6031221,-0.3365529,-0.025219917,0.5940492,1.5480764,-0.5354221,-0.0112787355,-0.18784809,0.66058826,-2.2704537,0.69860375,-0.57576865,1.6281494,0.25375065,-0.8780504,-0.40007126,2.2289693,1.9442197,1.0866423
AML-62-001,1.5922191,-2.4934888,-0.4525562,-1.0407708,0.013456516,0.28023937,2.2491534,-0.8289672,0.5350913,-0.113127746,-0.1515194,-2.200748,1.8352989,0.6163463,2.452302,-0.13585223,-0.5095932,-0.88750046,0.4808738,0.5616557,1.417893,-0.050755806,0.42901865,-1.2873372,1.3329611,-0.59510225,1.1820362,1.5422373,0.28213108,0.065494545,-0.11122441,-0.69060916,1.0621878,0.19231987,0.46861678,-0.8046964,-1.0009894,0.32987595,0.266342,-0.39244118,-1.5553924,-0.93389964,0.56218565,-1.4411402,-1.7567534,-0.5572133,0.07068747,1.7647676,-0.121502884,-0.40810436,0.073997065,1.613786,0.38967785,0.5158515,-0.104233414,0.012823234,0.730776,-0.34568715,-0.26173964,0.8691631,-0.81945294,-0.3744187,-1.3238319,-0.8920169,-0.19499472,0.1814616,-0.18347438,0.60446316,-0.76205206,0.06328903,-0.016725158,1.0742586,-0.14426002,0.2262114,-1.2333735,1.2185962,-1.8550605,-0.6813502,-1.3086436,1.2217803,-0.17881693,0.7747199,1.7417299,-0.35822836,0.48644844,-0.4326692,-0.6247527,0.4349267,-0.51516175,0.29330298,-0.32264903,1.8054137,-0.62119395,0.059663735,-0.043119296,0.12729321,-1.6892442,-0.14533134,-0.4501232,0.47330293,-0.98183846,-1.1702592,0.9710856,-0.3279254,-1.3366098,-2.1223261,-0.95665616,0.9834953,-0.03081576,-1.0982796,-0.22431836,-1.2941986,-0.5634738,1.7399101,-1.6706793,-0.9980241,-0.24083823,1.2385274,-0.78953624,-2.1180563,-0.3319984,0.92918897,0.5975351,-1.7326607,0.14195906,1.6941137,0.8474391,0.86669236
AML-82-001,2.5480337,-0.66232646,-1.7558807,0.8497102,-1.2118013,0.5749912,0.6030479,0.033847727,0.43377215,0.6348486,0.54993397,0.482234,0.2994233,-0.3679838,1.7473938,0.8735386,-0.16423194,-1.3473161,0.7850881,-0.67304265,1.2842796,0.1147177,0.99602276,1.0479777,0.6103009,-0.44612974,-1.0564622,2.374907,-0.11743547,-0.040138967,0.6027803,0.98118764,1.6387861,0.09931919,0.28115892,0.21270843,0.11040588,-0.2618646,0.24435042,-0.22163163,-1.8627785,-0.20935605,0.04337487,-1.1230531,-2.2625105,-0.7320162,0.12854028,2.6149077,-1.2848334,-0.7900685,-1.3162606,0.34056494,1.209513,0.25153437,-0.19925466,0.5669007,-0.86311847,0.28071395,-0.15920314,1.2700657,-0.27843773,1.7709243,-0.7552383,-0.021920774,-0.017295439,-0.0789527,-1.557159,1.845167,-0.31137216,-0.2524219,0.22760747,0.49015823,0.76865613,1.7453971,-1.3994323,2.1468549,-0.4759202,-0.035421826,-0.8044018,1.3129568,-0.10965512,1.3224177,0.8108282,0.7340443,0.6238893,-0.04539434,-0.91144246,0.37135482,-1.2487432,-1.208369,-0.9711813,1.8751447,-0.6226095,-0.37597388,0.1813337,-0.77000254,-0.7308876,-0.5040429,0.070740886,-0.8348807,-0.48412785,0.8875908,-0.67873406,0.4272733,-0.30145687,-1.2407752,-1.3554448,0.93169224,-0.40763554,-1.6260593,-0.9654523,-0.6615171,-0.705364,1.4037837,-1.1230146,-2.0574067,0.059483994,0.95693696,-0.81552935,-0.3248341,0.0059201163,-0.89024866,1.7932507,-0.7702766,-0.4419201,0.112941734,1.9654343,-0.08277346
AML-73-001#2,3.261038,-2.449691,-0.079614796,1.1387048,-1.1514908,0.19148149,1.9047031,0.9152247,0.23589656,0.79564226,0.5259297,0.8104529,0.7829541,-0.38755703,0.9081761,0.29922256,0.710529,-0.52243644,1.2330153,-0.04388175,-0.22368531,-0.73057103,-0.8684805,0.027333656,0.019528337,0.23007394,-0.11807949,1.0866622,-0.50223374,-0.05957804,1.2130136,0.96371394,1.1672368,-0.30763957,0.7822757,0.322769,0.63654757,1.3700954,1.896578,-0.34716004,0.058521297,0.7728197,-0.8208318,-0.81088865,-0.34973234,-0.7994637,-0.07759389,0.18129115,0.6739849,0.8071211,0.4444686,0.5552555,-0.34590432,-0.41479766,0.12211712,-1.3064421,-1.2776499,0.9213537,-0.17316361,1.4565389,1.1301873,0.15344459,-1.2821628,-0.090702154,0.3201207,-0.79912394,1.8783876,1.0845321,0.21272394,-0.2206996,-0.17481989,-0.41223708,0.7524383,1.4476502,-0.74627656,0.56898206,0.090431854,-0.63617986,-1.3501685,-0.773416,-0.040330753,1.7606736,0.43729717,-0.18148816,-0.40011096,-1.4636414,-2.7298086,-0.017929932,-1.4161057,-0.0044562854,0.21186098,1.6709576,2.0728052,-0.6969748,-0.4279888,0.97117543,-0.22935213,0.81655294,0.5857348,-1.625832,0.039423928,1.2795831,0.15500878,-0.45587292,-0.6673695,-0.83472735,-1.2546941,0.047421288,-0.27067378,0.005681221,1.0268867,-1.7882667,-0.62281525,-0.09255476,0.47929358,-2.0533307,0.7578813,0.904498,-2.120401,-0.052790165,-0.5169027,0.06964232,1.1622347,0.73933166,1.5682037,1.6568172,2.088038,0.48848978
AML-57-001#2,1.8794347,-1.5223786,0.85006714,1.312694,0.9591223,0.29770803,1.2624577,0.29961354,0.34303308,0.8239376,-0.36851043,-1.0357081,0.71189064,0.6895202,0.28554982,-0.15830542,-0.6041815,-1.5938085,-0.5682639,0.45221138,1.8566921,0.6460023,0.22331445,0.56485385,1.5570912,-0.549149,-0.1796358,1.2780888,1.0921378,0.20036812,1.2026099,-0.1419607,0.6243556,0.9536889,-0.41733077,-0.96555954,-0.2738203,0.09399295,0.71087843,1.5950229,-1.2388386,-0.18406919,0.32217455,-0.13171126,-1.9104334,0.6192812,-0.8191849,0.26711744,-0.09178744,0.6037644,1.3805256,0.25317374,1.9100316,-0.61269104,0.18876116,-0.47315392,-0.48931894,0.5104562,-0.7343237,0.4713566,0.82513195,0.2177191,-0.37516496,-0.5769064,-0.07781472,0.1520665,1.6076362,-0.3470606,-0.47703493,0.11971461,-0.35364658,0.5321246,0.682141,2.6215732,-0.05110345,0.8831599,-0.31004423,0.040707026,0.23120964,0.47416246,0.6758629,0.9261483,0.92073137,-0.32921097,0.5077501,-0.66466945,-0.92282474,-1.7234747,1.2835585,-0.5585543,-0.48690096,1.2770888,-1.6946745,-2.0509923,0.073372684,0.59731895,-0.5655433,0.5407785,0.3536348,-0.36505294,-1.414221,-1.3095324,0.33615792,-0.61481386,-1.3241261,-1.8129375,-0.5563753,0.5059904,-0.73442304,0.5278044,0.19983388,-0.36824003,2.0033545,1.0450763,-1.5609041,-1.8732597,-0.78812593,0.5749064,-2.289761,-2.1317544,-0.3719022,-0.08751833,-0.64139,0.19968371,-0.59765375,2.9853857,2.1751442,-0.2487182
AML-66-003#2,0.4904832,0.23329638,-0.54404896,-0.9518481,-0.28032273,1.6651831,1.3570604,-0.23291147,1.8392825,1.4129328,0.3166768,-0.10343961,1.7861012,-0.20729491,0.9041106,-0.47110882,0.0843076,0.031216267,1.0243022,0.098162726,0.5011588,-0.3377427,-0.34620872,1.991819,0.7336068,-1.2956648,-0.7831872,1.3450167,-0.09790024,-0.0030569718,0.42315534,1.0562526,1.6711555,1.6225067,-0.24978274,0.8808084,-1.5938541,-0.4642746,0.92208135,-0.39142907,-2.2613292,0.26854077,-0.1417054,-0.95633525,-1.8600525,-0.021450164,0.2941675,1.9071528,-0.51489264,0.077145964,0.32614934,0.5029501,0.9509312,-1.3516265,0.34586638,-1.5286047,0.3596055,0.21111737,-0.7847981,-0.5112142,0.023801541,0.72524977,-0.96906954,1.8011285,-0.8287912,0.24777855,1.2732484,0.06166681,0.9542288,-0.54573613,0.4274985,0.82321155,0.2364747,0.76524526,-0.44428226,0.9089236,-1.0057999,-0.13998891,-2.1886466,-0.3921932,0.79684514,-0.24120782,0.8563689,-0.9387186,-0.75485367,-0.69641304,-0.064976245,-0.8907051,-0.54424065,-0.37757894,-0.8891919,1.9440039,-0.5832755,-0.23360841,-1.3675684,0.291059,-0.4893217,1.10813,-0.016176794,-0.0124282595,-1.4937559,0.1624376,1.014948,-2.3806577,-2.514228,-2.5212603,-1.4264394,1.2060454,-0.050872955,-0.8473582,0.48401496,-0.46297958,-1.3594179,-0.24637748,-1.4220054,-0.123698115,-0.20105879,0.62553084,-0.97967255,-0.3412471,0.21399261,-0.2481143,-0.7138091,1.2912111,0.57287824,2.3906744,-0.39298943,0.5721274
AML-64-001#2,1.1987355,-1.7908051,-0.09811973,-0.11177103,-0.0057499553,0.6546361,2.5476654,0.59339434,1.3577535,1.8471032,-1.2748797,-1.5819463,0.059248596,0.31405547,-0.8136757,0.04877443,-0.5412373,0.24147741,0.5502829,-0.5280363,0.6749104,-0.11603778,0.61485666,-0.14324583,-0.071132496,0.13801938,-1.4411911,1.5950583,0.8519575,-0.11374188,-0.37035936,1.7380589,0.75840235,0.65839076,-0.8796273,0.04479982,-0.85952365,-1.9342564,0.4340141,0.14145397,-1.12368,1.2215724,-0.8817494,-1.8490647,-1.6987418,0.090006754,-0.6788377,1.1997595,-0.9490362,-0.26473427,-0.9743095,0.4161813,0.39506373,-0.14336789,-0.067510724,-1.4549634,-1.0438725,0.25409,2.3263927,2.0177128,-0.9279991,-0.049984578,-0.9323,-0.2231725,-0.14962761,-0.40934888,1.559749,-0.62107176,0.6523678,-0.27388516,-0.07957372,-0.23703559,1.2007167,1.1163311,-1.3823609,-0.3580592,-0.14939706,-0.8620187,-0.5435015,-0.0056242016,0.6527432,-0.23726812,1.1550598,-0.21754545,-0.40070063,-0.30165514,-0.3002446,0.74207485,0.5825087,-0.74273944,-0.69882226,0.10823485,-0.27569407,-1.8759223,1.1614274,0.98788124,-2.0740132,-0.54509753,0.6541168,0.56798124,-0.34135863,-0.6691028,0.28916416,-0.9366327,-1.6151705,-1.1767733,-0.6623412,1.5403299,-0.67396,1.3976401,-0.031259432,-1.3741632,-0.54606926,-1.1161253,0.01900302,-0.020125054,-1.1370689,0.56292343,-1.0680785,0.986242,1.586343,0.9987501,1.692776,1.7647465,0.08864764,2.5701537,0.1370275,1.3204373
AML-116-001#2,1.2443504,-0.80172884,0.9309768,0.48262554,-1.867541,0.87790954,1.5615542,1.1579595,-0.026110457,0.3130379,-1.3227793,-0.93265057,0.46996248,-0.038733527,0.17373286,-0.5417457,-1.6466407,-0.74365056,0.22863455,-0.04245233,-0.72434354,0.045415565,-0.13879389,0.23114775,1.59063,0.9152402,0.5746143,1.9192928,1.2991356,0.029905496,1.0191954,-0.30322126,1.0015002,0.27012837,1.8462703,-0.5195641,-0.19277601,1.3676848,1.9444379,0.17383884,-1.2562481,0.75026464,-0.219056,-0.5544165,-0.12241013,-1.582519,-0.09972509,1.3197912,-0.4018556,0.30044323,0.18306679,1.3664975,0.9986544,0.5890598,-0.5920435,-0.33820856,-0.38574868,-0.24821417,0.3174178,-0.2648863,0.67203593,-0.16586292,-1.7087404,-0.57600474,-0.12169618,-1.213625,1.3696415,0.625124,-0.3348542,0.44789687,-1.1748883,0.83477455,1.4636183,0.956464,-1.8895296,0.33360067,-0.016240465,-0.55849177,-0.37781143,0.61571795,0.2823793,-0.36677495,2.477962,0.31542164,0.34521934,-1.230816,-2.258389,-0.800427,0.112276785,-2.0034282,-1.8233628,0.71574044,-1.1797254,0.71697193,1.8503257,0.7650015,-0.23955397,0.8332119,1.5135928,0.5532697,-1.3829108,-0.98679674,0.7486619,-0.2175561,-1.871426,-0.40117735,-1.2654848,0.1463448,1.5117552,0.020167015,0.10171609,-1.0915763,0.4736797,-0.05156124,-1.312936,-2.9250877,-0.9452451,1.3489857,0.49909604,-1.1426715,-0.23735692,0.384309,0.300759,-0.2815484,1.0628194,0.5427936,0.5834012,0.34562474
AML-102-001#2,2.6300905,-0.89193726,-0.5075739,1.6473595,-2.0807977,0.09232653,0.672021,-0.06191806,-0.42871952,0.54503435,0.108122624,-0.8255038,0.615941,0.3606459,1.6097645,-0.31094077,-0.12737314,-0.9731241,0.49263105,0.323172,0.571984,1.0136867,0.50115085,-0.6692436,1.0228789,-0.68413806,-1.5646614,1.7446414,0.41329205,1.6402302,-0.0047016535,0.6957719,1.6701881,-1.3599774,-0.3513172,0.73095787,0.9206439,1.8267103,0.26199764,-0.8197432,-0.9963687,0.555267,0.65552384,-1.1922154,-0.5319753,1.205386,-0.08761617,2.3967946,-0.6992439,-0.1816781,1.1667899,0.13767333,-0.73702776,0.7510328,-0.49287486,-0.084089495,-0.54404986,0.75298876,0.44493243,1.3923793,-0.5914094,-0.20597117,-0.43900007,0.42440575,0.1158409,-0.6560918,1.5326402,-1.0305977,-0.96996677,0.43058082,-0.3960811,1.1669681,0.8943169,1.9863164,-0.6612824,1.4455882,1.5368776,0.35620737,-0.72838104,-1.0800345,0.3589922,0.56710994,0.6572436,0.8384967,-0.41908172,-2.1310365,-1.8828126,0.15290436,0.09173581,-1.2274436,-0.4138323,-0.49718127,0.07053072,-0.9279782,-0.14371435,0.22535595,-2.1688333,-0.026646633,0.71409297,0.67884815,0.2503955,-0.30923262,-0.053821344,-0.4822811,-1.5283822,-1.3879128,-1.3778367,1.308427,-0.308078,-0.22750373,0.40252614,0.33940735,1.2882662,-0.22702377,-0.7997882,-1.212579,1.2912881,1.2419858,-0.016651751,-0.7873722,0.3516648,2.0913115,0.37211376,0.43027166,0.56939435,2.0171683,2.1487207,-0.0152849015
AML-09-002#2,2.6290827,-1.0421783,0.19365399,0.5499379,-1.3914746,0.6921282,1.0611655,0.060857423,-0.3840405,-1.0622053,-1.0461226,-0.57687575,0.45784453,-1.0507058,0.22608419,1.0900555,1.1703048,-0.36203498,0.015128972,1.4781008,1.499346,0.87871456,0.32166734,-0.7789725,0.9471795,-1.6894706,-0.33107147,1.1432265,-0.08872274,0.6422648,0.44946855,1.0112755,0.25822788,0.13417304,0.3755443,0.035845082,0.6178341,0.70306325,1.1978239,-0.057569217,-0.47438294,1.2004561,0.24296393,0.6928309,-0.95408237,-1.9109348,-0.47068873,1.4712132,0.402261,-0.6389525,-0.13399513,-0.014750567,0.081605785,0.13850436,1.0976938,0.20902646,1.1260853,0.30583033,1.1953217,0.14653836,0.29718998,-0.42880964,-0.1297628,-1.2404556,0.31803626,-1.3225702,0.9562566,0.89816135,-0.05421854,1.0731294,-1.5791144,-0.022263998,1.307968,0.8855394,-1.3958083,0.57645714,0.37029427,0.8456636,-0.88989145,-0.2161921,-0.032698568,2.584697,0.8037873,0.86909413,-0.26256934,-1.5472382,-2.9123478,-0.98747754,-1.2330978,-0.9119745,-0.97494334,0.09883552,-0.264741,-1.7540435,-1.0261492,0.43337795,-0.007016467,1.300245,2.007862,-0.9946595,-0.7833806,1.3893486,0.6250613,-1.4622864,-1.6256474,0.24203679,-1.0649176,0.24528241,0.63320184,-0.47898716,0.42529273,0.043007582,-0.36050647,1.4491997,-0.36134365,-1.4250786,0.26936495,0.68010676,-0.79732454,-0.7466474,0.47433236,1.5890801,-0.33540222,0.12580529,0.050657064,2.3132365,2.4245114,0.5676453
AML-113-001,1.0736717,-1.5225953,0.008324432,-0.39630908,-1.1409236,0.19964698,2.2202203,1.2610888,-0.011584755,0.062907256,-1.2703099,-0.12020702,1.5679526,0.628233,0.9767642,0.69078237,1.0571164,-1.0059836,-0.18191116,-0.4863126,0.7277142,-0.4675636,1.8963524,-0.84773475,1.2095742,-1.5646964,-0.25683677,2.4404094,0.92586863,0.6273702,0.621,0.87024003,0.724283,-0.68171227,0.24722295,-0.4192837,-0.15005961,-0.2045926,0.29628107,-1.012758,-1.7359593,1.6587187,-0.85108316,0.30659574,0.57238585,-1.4124622,-1.4294038,1.1924198,-0.4129251,-0.6540414,-1.0631557,1.007061,0.30726424,1.2798578,-0.49290466,-0.6797525,0.9635888,-0.0072586313,-0.8895894,1.2393357,-0.06382204,0.30701157,-0.29537055,-0.7862572,0.15417784,-1.4060025,0.5052423,0.003332542,-1.1351008,0.12673138,-1.2146852,0.973657,-0.08151313,0.9253515,-1.2982587,1.9166768,-0.37374103,0.7488085,0.35617754,-0.43805456,-0.9156033,0.49268323,1.2051492,0.9273214,-0.04125587,-1.466833,-1.089525,0.31360745,-0.7083526,-1.083207,-1.3400666,0.95973253,-1.2463317,-2.5709667,0.13780321,-0.11788985,0.3759624,1.1679976,1.2162739,-0.9906336,-0.09402565,1.1451241,1.2538564,-1.0275074,-1.9307847,-0.43833986,-0.8465194,0.054584373,0.7477095,-0.91662997,-0.1575824,-1.1134328,0.6445571,0.2970786,-1.0620254,0.8219965,-0.33635038,-0.8392005,-1.1437047,-0.26141185,-0.07736329,1.2786906,0.68170124,0.71735394,-1.0399454,1.0057563,2.9208722,1.0868409
AML-63-005#2,2.6168487,-1.8656723,-0.98944116,0.55525553,-0.20150384,0.70492935,2.8401794,-0.34667373,-0.7999109,1.6354275,-0.30333468,0.020244861,0.19892842,0.6802806,1.3278611,0.341379,-0.9759354,-0.8764268,-0.025297612,0.26534632,0.8064526,0.09593287,-0.21899395,0.36632496,1.834025,-0.49416062,0.31714207,1.4967173,1.1416303,0.30191708,0.24994746,0.33303156,-0.060859196,0.2627544,0.98402447,0.63377666,0.12158517,0.59259903,1.2740226,-0.6432099,-1.7098931,-1.0206485,-0.062199593,-0.8335301,-0.8957278,-0.40010086,-1.0135483,0.3818937,-1.3132584,-0.79960793,1.3486277,1.3103198,1.2847967,0.12145429,0.8150619,-0.27015224,-0.07884668,0.34258223,1.6561036,1.3719392,0.3155485,-1.0683029,0.2744809,-0.7062964,0.549135,-0.65330505,-0.058938228,0.6465813,-1.1391153,-0.36438832,-1.081005,-0.23955509,0.1848227,1.7448226,-1.628399,1.951472,-0.08476064,-0.91776526,-0.5596259,-0.11954855,0.3592609,0.114372835,2.3621345,-1.4313176,0.8138415,-1.6484356,-1.7375549,-0.57967836,0.7788554,-1.6644496,-1.2084119,0.6538962,-0.059495606,-1.4780221,-0.025547469,0.8556044,-0.7680631,0.58948374,0.7278056,0.55614185,0.24915232,-0.8462616,-0.22389361,-0.056256402,-1.4209226,0.7146654,-1.2075331,0.27483073,0.35319725,0.86154294,-1.4941579,-1.2556945,-0.102722354,-0.17128612,0.38048008,-0.91117555,-0.9932151,0.40252784,-0.65214413,-0.27982035,1.0973266,0.96758837,0.6412869,1.7112354,0.17115203,2.5538824,0.17632858,1.7087619
AML-49-001#2,2.457696,-0.92578393,-0.86648923,0.11629965,-0.38629508,1.1265931,1.8891714,0.39546672,-0.66826195,1.3295511,-1.7146493,-1.0956383,1.7481668,0.73132604,2.272994,-1.2551558,-0.7174842,0.021617398,0.64499116,0.28475916,0.7487136,1.9631616,0.45410645,0.8783745,0.41646647,0.39265934,0.43805695,0.10782932,1.5122715,-0.2882646,-0.4076728,-0.3511899,1.4230893,0.26354522,0.12115374,-1.2500505,-1.1127504,1.7538859,0.5062099,-0.5100868,-1.3179342,0.23749964,-0.1899596,-0.097740926,-1.4728532,0.6021904,-0.35681656,0.55671114,-1.0920528,-0.33097786,-0.50881267,0.5027525,-0.5806314,1.0684848,-0.50592816,-0.5849441,1.7266635,-0.35966733,0.26286703,0.5430709,0.09093483,-0.4403357,-1.7789822,1.0403601,-1.5102942,0.750614,0.37349755,-0.8078309,-0.57328683,0.7063178,-0.29428327,-0.5605075,0.35662082,1.2100927,-1.2129458,0.95091134,-2.1060135,-0.248407,-0.5732667,-0.43626708,0.474273,-0.06863542,1.304657,-1.2142705,-0.53577924,-1.4324292,-1.6955256,-1.1820163,-1.0504047,-0.17187689,0.12410084,0.8204775,-1.503489,-0.6541833,0.6103905,0.11565964,-1.2451878,-0.4315785,0.37984896,1.1111972,-2.0788229,-0.08731513,2.0971332,-0.8153041,-1.6263365,0.58184355,-0.7645244,-0.8770931,-0.16954888,0.45606542,-0.0710099,-1.2563,-0.21064809,0.63622254,0.10486533,-1.4649373,0.21313752,-0.75610995,-1.9543388,-0.74165833,1.9905925,-0.64350575,-0.3819358,-0.412315,-0.08610904,1.9133164,0.61185426,-0.18002304
AML-117-001#2,1.0117769,-1.9777765,-0.88910985,0.20414338,-0.4176675,-1.0540229,0.9659183,0.34742865,-0.48392245,1.4177626,-1.7050555,0.24747214,0.39333087,0.5107391,0.5123854,1.1693419,-1.8122754,-0.72340727,-0.5433842,-0.5869621,1.1250128,-1.2434666,-0.530912,0.69794726,1.069627,-0.8247505,0.3031328,1.8230036,-0.28193656,-0.15686576,0.9562665,0.31336546,1.829852,0.508865,-0.07006416,-1.5237331,0.022727912,1.0776521,0.59550154,-1.5873845,-0.8568372,0.82117414,-1.2623123,-1.4050572,-0.71805596,0.55244625,-0.47205216,2.7503645,-0.31130216,-1.4837886,0.32612965,-0.16852447,-0.014188036,-0.04552291,-1.528515,-0.3625293,-1.4783783,-1.5812317,0.1554567,2.0896602,0.23199265,1.0670762,-1.4783145,0.44102868,-1.1910175,-0.18971384,0.45837405,-0.34516522,-0.09159629,-0.33054915,-0.5539908,-0.26087523,0.94311017,0.41876453,-0.53705037,0.0059189615,-0.11787204,-0.37272695,1.0597525,-0.4448622,-0.7528815,0.20114112,1.5373801,-0.79687506,-0.27191705,-2.5426562,-0.5793769,0.47217005,-0.04903501,-1.2948172,-0.3309344,0.93733746,1.7681966,-0.38583136,0.907312,1.1089829,-0.91227937,0.5632787,0.8881445,-1.7264434,0.1255367,0.06570552,0.14882863,-0.16342476,-2.0180566,-0.69683844,-2.0442245,1.7723224,0.85702044,0.28452694,0.4875511,-0.019979345,0.69469887,1.1183311,-0.10032142,1.1778502,0.8794911,0.15248068,-1.0102072,-0.44360363,0.38164455,1.4450659,0.7068261,0.11597969,-0.13175564,2.2215092,1.4124644,0.7632336
AML-22-001#2,0.9279628,-0.42378592,-0.33953893,1.9833454,-1.0487033,1.0672547,2.1441207,0.41005534,-0.24952799,1.2993153,-1.829879,-0.2550205,0.103140965,1.2340276,2.460999,0.058358744,-0.5526667,0.17541851,1.0354581,-0.51668614,0.4806553,-1.0359663,-0.18717828,0.26947588,1.1697035,-0.4831474,-1.1330941,1.1361367,-0.44531173,-0.65065986,-0.82324004,-1.3537196,0.9820467,-0.7231508,0.26749155,-1.1553441,-0.5333007,0.28443438,1.8342888,0.7524745,-0.97852707,1.7162404,0.31384683,-0.37849984,-0.88136214,-0.84829205,-0.75747687,2.6354508,-2.2002964,-0.21048182,-0.03627564,-1.0627337,-0.04725385,-0.67220443,-0.45257068,-1.8854738,0.5199158,0.34348437,-0.11003434,0.1124992,0.2406964,-1.0022631,-2.7554069,0.02154415,0.16498245,-0.10515729,0.48754928,-1.18197,-0.20698407,1.9275228,1.1303209,-0.38447934,-0.0058727167,0.32796142,-1.7625192,0.95566326,-0.9936417,-0.3329249,-0.0096800355,0.12185069,0.43840533,0.6197508,1.98074,-0.6679877,0.25673795,-0.55765605,-0.66914463,0.23746386,-0.3301315,-0.83814186,-1.7557814,1.6513394,-0.6042369,0.41553614,0.52409613,-0.25534186,-1.3396195,0.30007195,0.47443506,-0.87083024,-0.5483313,0.49010518,1.8346871,-1.3444242,-0.9810649,0.11233646,0.76433015,0.17191575,-0.3462744,0.73147947,0.369257,-0.549479,-0.7122794,-0.33825707,0.29395446,-0.11028112,-0.21245907,1.285748,-2.031751,0.15010197,0.75637704,-0.28233734,0.31708503,-0.2065967,0.24235806,2.2713308,1.7152964,0.9448718
AML-119-001#2,2.5705352,-2.5201106,0.18275324,0.5087849,-1.5024827,0.216842,1.9104093,0.55860645,0.326491,0.6451169,0.3290296,0.22793984,0.8767323,0.12876503,1.5755131,-0.7371502,0.021030895,-1.6370097,0.6565478,-0.8901157,0.6826099,-1.5974648,0.46805122,-0.6723806,1.1957383,0.8576453,-1.3115274,0.7190204,0.94466865,-0.47197163,0.5503526,-0.0567661,0.76473194,-0.16521466,-0.3945582,0.07200054,-0.6787693,0.838405,0.9792638,0.4858749,-1.0929669,-0.024008421,-0.7158191,-0.81057394,-0.47417307,0.09840533,-0.08440234,-0.23564927,-0.029036406,0.9573476,0.36677933,1.8814553,1.1258931,1.1703492,0.9176208,-0.5807965,0.4228892,-1.2541625,0.52694947,2.0086904,-0.38332045,0.27725503,-0.72804713,-1.5336854,-0.26388922,-0.2047903,1.3107833,0.5528465,-0.39216664,0.4763515,-0.5741133,0.49781856,-0.28557256,0.7692335,-0.06379341,2.0871952,-1.4696723,-0.8385468,-0.6707575,-0.48019686,-1.0391526,0.7681894,0.85092056,-0.012421043,1.5188559,-0.9830538,-1.0942843,-0.20014891,-1.3777758,0.26130062,-0.47900826,1.8404621,0.652058,-1.3155705,0.02610256,-0.1989451,0.66232723,1.5694904,-0.058110606,-1.296182,-0.4493684,-0.4942951,0.4864189,0.35956973,-1.749982,-0.6679134,-1.3145783,-0.4991487,-0.18378507,0.619606,-0.26282758,-1.7195976,0.0039758375,-0.0770263,-0.039253052,-1.6741805,0.4618979,-0.60191137,-1.5390548,-0.6781482,-0.9849871,-1.0941578,1.4186159,0.65291685,1.1420842,1.5437893,3.4487557,0.3402416
AML-121-001#2,1.8500265,-2.0984964,-0.36235368,2.3149612,-1.0891352,1.4352876,-0.43136638,1.2010226,-0.13315906,1.396883,-0.9612819,0.2917996,-0.28642973,-0.5517342,0.20893365,0.7516274,0.12571034,0.023222106,0.95765805,0.10470814,0.9803755,0.45629895,0.32588312,0.09180536,1.3534123,-0.7505074,-0.37474036,1.4253755,0.5400154,-0.27497786,1.0212954,0.62177676,0.91441023,-0.1964528,0.31920657,-0.80583394,-1.6044108,0.5752156,0.7233555,0.41792586,-2.3262553,-0.60157645,-0.12378694,-0.7622053,-1.5871116,-0.56333,1.0467993,0.9824249,0.38317016,-0.57017726,0.30370155,0.024475278,1.62272,1.6295887,0.47868618,0.4907826,-1.0076302,0.54451203,-0.17137203,1.1444292,0.41871366,0.40438184,-0.35049456,0.117360204,0.76672256,-0.19415556,-1.3208343,-0.39421096,-0.21812987,0.61758447,-0.002835019,-0.26766688,0.8858037,1.2420875,-1.0338935,1.1753114,0.7883639,0.17874381,0.24696535,-0.4761449,-0.64774907,0.7658131,0.30962893,-0.15989779,1.0265568,-0.9879123,-3.104638,1.0578871,-0.0010035111,-0.71571356,-0.44253507,1.7771258,-0.27772355,-0.46648288,0.107645914,-0.371325,0.50561744,-0.83937657,1.4756808,-0.38495237,0.52241045,2.2041886,-0.009034666,-0.37711403,-1.134025,-1.8021324,-0.72281927,1.4230363,0.46062958,-1.2944007,-0.16307682,-0.28547144,-1.3714621,-0.5889096,-1.0343139,-1.7761823,-1.2413118,0.37101394,-2.0397441,-0.29437196,0.80532634,1.4893606,0.2068063,-1.3905395,0.031934954,1.9587739,2.299318,-0.5865368
AML-113-001#2,0.73334986,-1.6733265,-0.28569302,-0.26395708,-1.5298886,0.22006525,2.009533,1.2573874,0.027748939,0.10887937,-1.4784136,0.16894938,1.7029158,0.70643336,0.98187834,0.4022123,1.1298243,-0.6849914,0.09331486,-0.7308984,0.46174306,-0.5720723,2.0177789,-0.9295276,1.691809,-1.2972028,-0.20763539,2.3200805,0.86356425,1.0434324,0.69419026,0.76733416,0.84432966,-0.6862436,0.11707791,-0.115603186,-0.3088355,0.03007241,0.25683066,-0.71267885,-1.8967358,1.6803012,-0.8812861,0.10238141,0.38109338,-1.4408119,-1.1019355,0.9956748,-0.45858634,-0.7439587,-0.9231479,0.56739235,0.12020959,1.246274,-0.24326673,-0.88049704,0.8306907,0.13388066,-0.62589824,1.0925891,0.05434492,0.6586723,-0.4914881,-0.912206,0.11339989,-1.2149788,0.5747586,0.31837448,-1.3683258,0.14813298,-1.2497767,0.828748,-0.006811219,0.77074003,-1.0040413,1.8995444,-0.31353962,0.6508024,0.5063929,-0.47067454,-0.88448507,0.29179534,1.2681854,1.0032878,-0.23322764,-1.1690621,-1.1289026,0.23001397,-0.3476962,-1.1192878,-1.3628181,0.7938391,-1.2819504,-2.5771189,-0.3082001,0.37052283,0.23925346,0.91552216,1.026915,-0.7707219,-0.089861974,1.2475023,1.3473351,-0.89223516,-1.950485,-0.50095874,-0.5741303,0.92850214,0.78893,-1.1602198,0.14731413,-0.9233987,0.85604906,0.42448497,-1.5428323,0.8017877,-0.08733992,-0.91720164,-0.94211185,-0.23268698,-0.06446159,1.4450117,0.70922905,0.8391175,-1.123046,1.2764935,2.9490447,1.0694805
AML-109-001#2,1.4312811,-2.8447196,-0.07837431,0.7425493,-0.5382195,1.3596625,2.6303356,-1.4799538,0.66457,1.5563005,-0.45179167,-0.23740244,-0.40786502,0.59447736,0.87317914,0.68174946,-0.54077715,0.25211385,0.8058054,-0.18087465,2.1384835,-0.12625548,0.50345355,0.40329137,0.89670944,-0.38636315,-0.461028,2.049031,0.91362226,-0.13877395,-0.0860328,0.82910776,1.1844978,-0.122069694,-0.829419,-0.50483906,-0.3356253,-0.41130283,1.1617235,0.09526079,-1.4674777,0.63837814,-0.7461525,-0.49720302,-1.0991268,-1.0592904,-0.48600212,0.26709625,-0.96737975,-0.3005326,0.6347713,0.25169513,1.2914435,1.155808,1.0970036,-0.4423741,-0.36157075,0.21959844,1.0820595,0.9458896,0.57504404,-0.83267534,1.2706946,-0.23022714,0.539108,0.35131836,1.3199127,-0.9118252,-0.9396048,-0.31772736,-0.46925452,0.32031462,1.5224966,2.1875148,-0.7223846,0.7362897,-0.41730413,0.1896148,-1.4901197,-0.6103017,0.14524557,0.6268014,1.5405762,-0.4176108,1.1056074,-3.701713,-1.0383841,-0.38188192,0.17569661,-1.0948712,-0.74111974,1.5213655,-0.7120026,-0.5252664,0.13508122,1.4883541,0.043267716,0.27488625,0.3712347,1.2563804,-0.20347577,-1.5237608,0.3409539,-0.28876877,-1.7589507,0.42860597,-1.213554,0.78347427,-0.034539737,1.706105,-0.6146816,-1.9599901,0.0733519,0.6666436,-1.0630976,-0.6694535,-1.0171864,0.46516004,-0.23234716,0.064447634,0.46098968,-0.022009373,0.5443044,0.3239385,-0.7275583,1.9602664,0.5168783,0.6806679
AML-72-001#2,1.5659899,-0.7632058,0.8888378,-1.3208017,-0.51021326,0.82160234,1.5333563,-0.7434002,0.48865837,0.93027645,1.1952951,-0.635439,1.2720897,-0.1116461,2.2176807,1.0014535,-0.9509238,-0.4137725,0.20627953,-0.41727516,0.7488811,-0.7381294,1.1724318,0.7843769,0.5759233,0.038743522,-0.3112809,2.4343448,0.5668367,0.26934847,-0.7376617,-0.47070962,0.5201189,0.6399615,1.5403198,0.35442102,-1.3134953,1.6572455,-0.004305188,-2.249706,-1.6489958,0.14239945,-0.915234,0.09738211,-2.0230308,0.014717631,-0.5175021,1.8027891,-1.2983581,-0.6162709,0.77495605,0.7172356,0.65616333,0.45024318,0.7607761,0.31425703,0.5522064,0.20043138,-0.8218575,-0.05529109,0.04439922,0.7595478,-0.7637453,-0.2711973,-0.96246386,-0.28027296,1.0762643,-0.4704021,0.27596018,1.7331218,-0.7604392,0.69120735,1.0113415,1.6570623,-0.55637884,0.81419724,-0.2757354,-0.34027386,-0.5186769,0.6806964,-0.17433251,1.5725669,0.8610416,-0.112754084,1.4453751,-1.5246538,-0.92081165,-1.1987907,-0.31571737,-1.0446383,-0.18041667,2.4504201,-0.81318295,0.6783041,-0.18132555,0.9981202,0.30962056,0.3619687,0.7030812,-0.853058,-1.2409606,-1.4880736,-0.48633704,-0.79454964,-0.5932509,-1.013849,-1.0314853,1.1064961,1.2087493,-0.92950994,0.077644005,-1.0461571,0.6042675,0.68854153,0.6553031,-1.8723621,-1.0827963,1.876764,-1.0181506,-0.78542835,-0.016649539,0.6641456,1.7439761,1.1794661,-0.19576631,1.7455714,1.3181583,0.18940759
AML-104-001#2,1.7950547,-1.771427,0.45148253,1.0715097,-1.3202356,0.06658394,2.3227232,-1.0646906,-0.19079894,1.4220454,-1.4347687,0.07680206,-0.0049087675,0.5903991,0.26898962,-0.30082792,0.39758173,-0.7487374,0.67617667,0.35271585,0.7354658,-1.249259,0.80185634,-0.29019347,1.1878415,-0.83229214,0.17029005,1.5976757,-0.6794792,-0.46298224,0.7399277,0.67423016,0.04992303,0.091092154,-0.20618455,1.0966985,0.3738135,-0.63447964,1.080149,-1.4314162,-1.7343273,-0.28560552,-0.01696637,-1.2904294,-0.49097267,-1.1787733,-0.17820245,0.36711472,-1.5724646,-1.0310049,0.74003804,1.1215725,-0.17322147,-1.0491362,-0.14559627,0.18696651,-0.9216899,-0.5880897,0.5297439,2.3301144,-0.48908615,-0.023517834,-0.777136,-0.33821958,0.095400535,-1.3002592,0.031166643,0.8513064,-0.8122658,0.11609249,-0.86389047,-1.0376058,-0.3458038,0.70172405,-1.5335371,0.6119114,-0.33639225,-0.38117084,-0.7496044,1.1920877,0.6344966,1.067551,1.7586712,-1.6702816,-0.028171936,-2.155032,-1.1883458,-0.27190733,-0.18613051,-1.5455607,-0.95679075,1.0070913,1.2379051,-1.2446994,0.013311024,1.4092195,-0.6308003,0.08802159,0.8233051,1.2022833,0.2571984,-1.0663935,-0.26629484,-0.52544224,-1.6050795,0.018772183,-1.3564692,1.6443698,-0.5005776,1.0067624,-1.2833039,-0.6132484,-0.027982434,-0.0701782,1.1507859,-0.39460248,-0.47392258,1.0537994,-1.4458575,1.4587309,1.2656533,0.116655454,0.7702031,0.76242965,-0.119048744,3.0291514,0.7896303,1.8219187
AML-109-001,1.5439669,-2.8510833,-0.020064577,0.41944197,-0.5045592,1.3136662,2.4701064,-1.250716,0.5072268,1.7972733,-0.62017614,-0.52165097,-0.4742124,0.5587706,0.83413905,0.95432943,-0.8541522,-0.07073289,1.0290381,-0.41533443,1.7945833,-0.18542396,0.6228849,0.13565944,0.70882916,-0.30734384,-0.289348,1.7938055,0.6431524,-0.16646051,-0.014766189,0.58719915,1.3606158,-0.5131885,-1.0103301,-0.5866905,-0.49504778,-0.41627005,1.1933838,0.06921229,-1.4056287,0.66811675,-0.89659274,-0.65016085,-0.86218786,-0.99875486,-0.21004921,0.42678753,-0.8492394,-0.48244715,0.33221817,0.39503855,1.4414408,0.90289265,1.0382471,-0.5306649,-0.12498878,0.035886977,1.0407169,0.9082885,0.3151727,-0.7658914,1.4249111,-0.22922783,0.4020285,0.17292361,1.4285682,-0.9076481,-0.50240654,-0.12501477,-0.8777709,-0.22661476,1.6148218,2.273124,-0.66912395,0.8519058,-0.13532072,0.19603512,-1.7294565,-0.52374035,0.09172141,0.55969936,1.4385507,-0.38867697,0.7993712,-3.7772858,-0.6989115,-0.4962688,-0.0025553354,-1.097651,-0.62089586,1.5256999,-0.74374247,-0.5507793,0.27135637,1.5942422,0.019751433,0.19234285,0.4761566,1.3223709,-0.19733596,-1.2474668,0.35753608,-0.4430725,-1.6424346,0.43492162,-1.2157066,0.65706575,0.019647943,1.9071345,-0.81173444,-2.132698,0.2918176,0.66497874,-1.3463444,-0.8237015,-1.0417037,0.31069297,-0.20411825,-0.4566516,0.4945127,-0.07207662,0.64336836,0.20207338,-1.1143571,1.7817533,0.5047287,0.7525307
AML-40-001#2,2.4553478,-2.1058083,-1.0009553,-0.56212294,-1.1430168,1.0449022,0.5743543,-0.21414162,1.34185,1.5134516,-1.2739226,-0.1445151,1.2993784,-0.42013106,1.3241951,1.017917,-0.6071353,-0.76839554,0.65784466,0.2517629,0.52086985,0.6130233,-0.30183628,-0.71107537,1.5854226,0.33482763,0.8627301,2.4205732,-0.22283962,-0.37584564,0.68647635,-0.2560736,0.79088444,0.054682475,-0.641301,0.22096716,-1.1054081,-0.8969046,-0.17027906,0.14339823,-2.3364196,-0.36593878,-0.22813943,-0.73695505,-0.8748065,-0.21508616,-1.121394,0.29162654,-0.21817082,-0.3841913,-0.32309416,0.050625604,0.1705991,-0.2539058,1.5983641,-0.5669714,-0.86175764,-0.23667799,1.707084,0.6776606,-0.30270496,-0.27756584,1.0031527,-0.84909683,-1.2230811,-1.3385215,-0.62560165,-0.35432094,0.40516564,-0.020706864,-1.120525,-2.0591993,1.4088882,1.8111553,-2.0881798,-0.01854299,0.7593166,-0.16684632,-1.7569064,-0.1754754,0.9917137,1.0488468,0.10891102,-0.6842036,-0.2167767,-1.714767,-1.8998052,0.37620956,-0.06633205,0.480648,-0.7587975,-0.594976,-0.7582514,-0.951406,1.0724756,1.099087,-0.41941908,-1.4566399,1.025043,1.2856923,-0.63479304,0.311196,0.31336224,-1.4204627,-1.0983781,-0.9841674,-0.5091653,1.2270011,0.73067844,1.8726485,-1.0380739,-1.4655347,-0.7160537,0.31687507,0.7084008,-1.5563093,0.27782726,-0.11040066,-1.1948322,-0.28610972,0.50482136,-1.0007663,0.32122505,0.4670997,0.5153349,2.1668863,-0.38589278,1.3372673
AML-05-001#2,1.1448365,-1.4124298,-1.2510551,0.04378958,-2.032712,0.55635,0.73702455,0.33972487,1.3738272,0.9462951,-0.9056709,-0.5077125,0.89524883,0.18159248,2.1249235,-0.1142038,-0.7726797,0.44651487,0.2884677,-0.048136335,-0.045218684,1.4753578,-0.0071395985,-0.3071423,0.85464704,0.41621163,0.5251728,1.631597,0.09938554,-0.14065075,-0.33941695,-0.10820348,0.46987802,-0.1456616,-1.4890857,0.07994716,-0.7640848,1.8259768,-0.025319288,-0.3099833,-1.5205662,1.0827497,1.5736787,-0.43341202,-1.1548581,-0.26726297,0.3603566,0.74050814,0.2964721,-0.0048048454,-0.2374457,-0.36126563,-0.9608149,-0.26530063,0.22506912,0.54833746,-0.44380894,1.9470905,0.048816692,0.26616433,-0.2981274,0.7247956,-2.0415676,0.32221097,-1.0726843,-0.48255706,-0.28574002,-1.124783,0.6520346,0.427569,-0.15698414,-1.9639266,-0.16676639,0.7501699,-1.2160783,0.27881077,-1.3722832,0.6832176,-1.8898916,-0.08344258,1.331639,0.7777047,0.76598495,-0.13416222,-1.0639178,-2.5812542,-2.6294856,0.45599154,-0.16661073,-0.23556624,-0.6773282,0.11614682,-0.74649155,-1.6949626,0.2912739,-0.7562955,-1.047921,-1.0889637,-0.17081977,1.0325229,-0.5998194,1.030298,2.1385694,-1.416194,-0.62405634,-2.2790227,-0.5784802,0.52443606,0.33050898,0.9082026,0.25243375,-0.5077186,-0.067103736,0.34295577,0.8206203,-1.6307154,0.6264609,0.2900972,-2.172965,-0.2518502,0.91501224,-0.53371406,-0.16087681,-0.8064781,1.5555447,1.2226522,2.0479524,1.0396341
AML-52-001#2,2.4499307,-2.8480322,-0.14144675,0.70460844,-0.74647605,0.45500326,2.0300496,-0.8896401,-0.15986456,1.6621681,-0.39718184,-0.1255496,0.195939,0.658511,0.7682967,-0.38301796,-0.5275743,-0.7220222,0.78387994,0.6362473,1.0484321,0.76939535,-0.66899073,0.096577354,1.3274641,-0.8102148,0.90213394,1.7562493,0.9241862,-0.26311052,0.415091,-0.5610912,1.7792957,-0.7509774,-0.1953487,-0.51338506,-1.075816,-0.06312186,-0.05715615,-1.2336124,-2.2524228,-0.5528369,-0.6377687,-0.69072974,-1.3833717,-1.3096312,-1.185687,-0.54188156,-0.76919174,-0.41552964,0.6303949,0.8997177,0.049885437,0.47383925,-0.35038462,-0.45596305,0.87555575,-1.0169858,0.85563666,0.9137682,0.0023851888,-0.93300754,0.7935931,-0.466405,0.45240027,-1.3500161,-0.4153183,0.3438224,-0.7518331,-0.36766967,-0.23624147,-0.9118548,0.66046566,1.2905229,-1.1685302,0.89168054,-1.5880982,0.16463341,-1.2021809,-0.3023825,-0.044199962,0.6031403,1.78617,-0.3132123,0.63272935,-2.3553417,-1.4165335,-0.4666881,0.114066154,-0.9080056,-0.43659863,0.61846906,-1.2505233,-0.016012913,1.063147,2.2052844,-0.28686294,-0.7996633,0.34420672,1.2465093,0.32713225,-0.82118154,0.9245291,-0.97906506,-1.4841905,1.0150869,-1.438229,1.7174898,0.8044737,1.3804692,-1.2249058,-0.5093812,0.71893984,0.08760419,0.077931546,-0.97563004,-0.12189635,0.49395692,0.0031194573,-0.24144536,0.22436424,-0.98832774,0.7504318,0.4846949,-0.45718226,3.1610796,0.1635946,1.2040095
AML-07-002#2,2.4282386,-2.0916657,-0.15539664,0.92863375,0.2496265,0.42301622,1.4525323,-0.078089975,0.028387323,2.101439,-1.6770728,-1.4309939,-0.18938746,0.8750462,-0.08243361,0.99152666,-0.5732243,-0.2534512,-0.33895296,-0.360158,0.5453575,-0.1602197,0.061820682,-1.2040704,0.76189256,-1.0301263,-0.15793793,0.046954293,0.09898581,-1.3256044,0.646527,-0.46302357,1.03086,-0.14039527,-0.5742781,2.0190701,0.43579525,0.078218944,0.1597455,0.6634121,-1.5446434,0.19280706,0.3206524,-1.4370906,-1.6197319,-1.6915369,-1.3697224,0.579571,-0.7252257,0.15003861,0.0009057127,-0.17968759,0.19745256,-0.086612314,0.44007707,-0.47541118,-1.3627037,0.6184932,1.3253973,0.47051328,1.1973743,-0.6484068,-0.76907325,-0.1305672,0.18518354,-0.8837604,0.64348745,-0.023215774,-0.38137054,-0.6808507,-1.2124132,-0.95671797,0.73728234,0.3945216,-1.0577787,0.4881451,-1.9338335,-1.0789442,-0.25179443,1.2094063,1.3922911,0.4571865,1.2987981,-1.5987729,0.90024453,-0.729541,-0.949143,-0.9133945,-0.22902605,-1.60791,-1.2499336,2.5898407,0.8804372,-0.9253612,-0.93779725,2.121304,0.09680768,0.81924874,0.07973227,1.3963217,-0.44203156,-0.37404346,0.54861236,-0.8533158,-1.2415521,-0.2513694,-1.5428332,0.018811017,0.7367592,0.94569564,-1.6009333,-0.69061875,0.5960138,0.46696573,-1.0613697,0.92503995,-0.4948058,1.1091805,-0.49592113,1.2067729,1.2467003,1.0184897,1.3563441,0.86955076,-0.9605359,2.4602928,0.21937475,0.5135281
AML-48-001#2,0.8424668,-2.085377,1.0948166,2.2958908,-0.54463047,0.9852395,1.4685436,-0.5064832,-1.308957,1.1025022,-0.69993395,0.9358606,-0.028439078,1.5751699,0.054066326,-0.8516378,-1.3211755,0.2576251,0.55899596,0.3734806,0.50506586,0.61781615,0.26608616,-1.2450039,1.0070167,-0.40652052,-0.94179577,1.6069449,-0.23017724,-1.5618238,0.66798323,-0.31909424,-0.09041301,0.6736055,-0.29666373,0.13380474,-1.2288548,0.08158663,0.4521778,-0.5153448,-1.851516,-0.41764835,-0.73167044,-0.73996806,-0.8361196,-0.4497582,0.034250505,0.77760535,-1.7793258,-0.2047069,1.4308163,1.5884204,0.90518105,-0.659502,-0.20790887,0.6912761,-0.76267385,0.117088564,0.22698933,0.9447089,0.39130366,-0.39474344,-0.559409,-0.44963378,0.35603663,-0.29475224,-0.00082175824,0.554644,-0.2382011,0.044812147,0.28169852,-0.14485,0.11160823,-0.09204287,-1.5925231,1.9036894,0.82290184,-0.34144378,-1.1580878,-0.013070588,0.08882225,0.49681607,1.6479598,-0.7286847,1.1824502,-1.8000975,-1.367123,-0.30967274,1.1150652,-1.154188,-1.5614828,2.5828605,0.7956524,-0.558278,1.8230873,1.6314965,-0.21822904,1.5478933,-0.07270989,0.58067,0.58447295,0.14176498,0.52011526,-1.9006187,-0.2551026,0.7204207,0.48353192,1.9868166,0.3095938,0.5670761,-1.0704898,-1.0409687,0.26081842,0.16084377,1.1383665,0.04190818,-0.67193836,1.470275,-1.2648478,1.5003958,0.061614607,1.484924,0.9791013,-0.05161999,-0.6107841,2.3364813,1.493659,1.0785139
AML-87-001#2,0.83869594,-1.7950238,1.1933737,1.1690089,-0.42315727,1.0145009,1.4132185,0.76032114,0.08108706,0.5983687,-1.2009735,-0.35251522,1.1525939,0.98400074,1.5761876,-0.45760137,0.9652158,-1.2367014,0.2520624,0.08278156,0.25280622,0.35437536,-0.9266261,-1.1193725,-0.88183767,-0.6631181,-0.8826638,2.3909173,-0.07703933,1.1179261,0.786633,0.9467378,0.9162156,1.2267976,1.8015146,0.27346036,-0.70713246,-0.15864153,0.5395835,-1.1275377,-1.8586175,0.9932779,-2.2955148,-0.5889341,-0.18824922,-0.327317,1.4242727,1.7677127,0.3108849,0.33690307,0.9889477,-0.002754106,0.43757913,-0.53881556,-0.75579655,-0.7643003,0.3621296,-0.5352573,0.3721954,-0.18310846,-0.63003063,-0.7388397,-0.037995588,-1.81028,-1.275897,-0.7618347,0.28135622,-0.12299593,0.21533757,0.342877,-0.42613086,-0.41447923,-0.142969,-0.21621676,0.33680338,0.5670613,-1.3803765,-0.07991718,0.1058911,-0.25197512,0.63608664,1.6457165,1.2487249,-1.02581,-1.0487659,-1.2424694,-0.8264452,-0.7999801,0.017107109,-0.98699284,1.1574147,0.9084323,-1.2395958,0.05156475,1.1089101,0.41696122,-0.39568308,1.3748721,-0.06486669,1.0477383,0.028695812,0.90871924,1.997908,0.6631934,-0.7529115,-0.04323644,-0.7758898,0.7525445,-0.36084512,0.45422554,-0.32197055,-0.03881953,-0.03438598,0.8095906,-0.52165055,-0.9656809,0.21828091,3.2528107,-2.282114,-0.9290331,0.8124373,0.15073182,2.0970898,-1.2596159,0.6109622,1.9937141,1.5912678,0.8626474
AML-78-001#2,1.749173,-1.402173,0.08177999,2.2491906,0.12737377,1.0508926,0.36965472,-0.5285937,0.56849897,0.28978685,-1.3536103,-0.7015558,-0.011593481,-0.111221686,0.3149779,0.9636409,-0.6080193,-0.2436143,-0.03204575,-0.23597825,0.74136484,-1.071057,-0.19309422,0.09184593,1.5222731,0.27040765,-0.24999222,1.7459704,-0.8648347,0.3535769,2.4577305,-0.5281351,1.9245368,0.4128205,1.1921232,-0.24505298,0.8557211,0.5329251,0.5146706,-0.21744666,0.34734744,-0.55324256,-1.9142799,-0.02891966,-0.67654616,0.47017634,1.2289892,2.6869657,-1.2681799,-0.74102783,-0.507589,0.65980625,1.1709552,0.65797,-0.9146561,-0.06169419,-0.63239616,-0.36995113,-0.076641575,1.1759496,0.11836396,2.1102529,-1.2848119,0.57676995,-1.0515249,0.29345316,-1.0408541,-0.5322307,-0.31661123,0.26807413,-0.7593847,-0.18776277,1.5786716,-0.117210865,-0.7899595,0.24506742,-0.756779,-0.5635657,0.72979575,-0.5154465,-0.43599087,-0.076453224,0.7790216,-0.7577854,0.034888495,-0.5902008,-1.278449,1.4414101,-1.1111435,-2.122028,-0.5454385,1.6212109,-0.64305645,-0.32441747,0.2939678,0.14979322,0.54951686,1.716793,-0.51756746,-0.53188866,0.36302954,0.11303208,0.9214609,-1.2213179,-2.26698,-2.2489762,-1.5733036,2.006017,-0.83742535,-0.15434937,0.4879883,0.36991197,0.3438798,0.12994288,-0.1592892,0.021444077,1.1625928,0.07587768,-1.6686033,-0.43784204,1.9858096,1.02484,0.29256147,-0.30591905,0.3500236,1.1359369,1.8020927,1.5039536
AML-18-002#2,1.64895,-2.390259,0.09833504,-0.18185404,-0.40621182,0.29531208,1.3758011,-0.76822805,-0.18826583,1.4679949,-0.2485048,-1.1244159,-0.8650938,0.3064223,0.6739711,-0.19649938,-0.552534,0.3922692,0.95423186,-0.38338655,0.8886109,-1.5954149,-0.96857667,0.3857407,0.9415369,-1.047041,0.7229049,1.9228714,-1.1905566,0.06913504,-0.14536847,-0.1790628,0.675217,-0.019398332,-0.06667223,0.97035754,0.43841466,0.57194597,0.7284484,-0.8490481,-2.6688225,0.7410014,-0.20479302,-1.012234,-0.97181964,-0.5777978,-1.959178,-0.06085406,-0.9087681,0.64661694,-0.016455818,1.0264139,0.38294664,-0.5131159,0.8045608,0.7201623,-0.72839206,-0.12557484,0.54292077,-0.33786952,0.39481363,-1.7917,0.37694484,0.13985682,0.2532386,-1.1008022,-1.0395318,-0.19060141,-0.7262756,-0.13354643,-1.0357345,0.20327356,-0.14167464,0.44674513,-0.68515235,1.453028,0.29780465,-0.37209657,-0.19920251,-0.8378732,0.45142102,0.9993544,1.5606289,-1.0192503,-0.121741585,0.1581402,-1.2923791,-0.21352413,-0.27629286,-2.0704918,-1.1217289,2.0181634,0.5435398,-1.2889917,0.50167364,1.7661514,-0.06831959,1.0765325,0.56788635,0.913336,-0.36274067,-0.5731198,0.5780402,-0.5830524,-2.0322785,-0.6198352,-1.5630322,1.8961856,-0.3101287,0.26482973,-2.1829765,-0.37231314,-0.5678328,-0.5473396,0.8565573,-0.19153327,-0.7684561,0.8450552,-0.83177227,1.8116388,1.4483829,0.73977053,0.19271761,0.7060932,0.85572034,2.3942792,0.8398888,2.7489371
AML-17-001#2,0.5799588,-1.0589607,-0.5328365,-0.085414805,-0.4241614,0.96918267,0.5423259,-0.0017270965,-0.8836711,1.3776286,-0.8696619,-0.5381328,0.8440963,0.35319206,2.300902,-0.3464509,-0.23945339,-0.69709265,0.45351553,-1.1287949,0.4300557,0.64506245,0.28381744,0.2127369,0.5606926,0.6802085,-0.51582617,1.1137387,1.1834124,0.8669456,-1.0386546,-0.68425333,1.7459927,0.17794289,-1.0269994,-0.24564584,-1.1303282,0.80754447,0.86500466,-1.186087,-0.8420783,1.6869988,-0.101727374,-0.40854055,-0.98642856,0.062088314,-1.3652477,1.9384853,-0.50291973,-0.6675662,-1.0221692,0.29272726,0.35115218,1.8062874,-0.977238,-0.15475304,0.66571087,0.7626129,0.9298633,1.5769902,-0.112761825,-0.4008323,-3.118849,1.2446758,-0.94991034,0.05279363,0.96444064,-0.41857406,0.19388099,1.1421046,-0.90459144,0.07411969,1.2762437,1.2798736,-1.7595773,1.7453452,-1.0051364,-0.08231551,0.35827798,-1.1804423,0.34442255,-1.3595638,0.27831677,-0.84926003,0.30727872,-1.6031134,-1.6810735,0.72192955,-0.7102798,-0.21199779,-0.73131794,0.8373148,-1.5597944,-1.7508789,0.7263459,-0.039149348,-1.5482903,-0.6488181,1.0726432,-0.06918183,-1.5810415,0.7258606,0.754477,-0.56383234,-1.7127392,-0.04218043,-0.9323255,-0.7056629,0.1895145,0.19943084,0.21989359,-0.6706026,-0.5002828,0.28888154,-0.27483994,-0.00404057,0.46037626,-0.15430516,-1.8211107,-1.7813338,2.6177363,0.6789769,0.5786241,0.9125136,-0.73997843,1.6255157,1.0005071,0.46192837
AML-85-001#2,1.6349782,-0.63828874,1.2387584,0.65335804,-2.0474446,0.9462279,0.64268816,-0.52093476,1.5382837,-0.08874502,-1.2409452,0.874341,0.83312005,-0.083152965,-0.60112005,1.4594953,-0.9230483,-1.1733615,0.045050792,0.7189688,-0.3325163,-0.5993704,0.23322725,-0.9603396,1.1582034,-0.6791149,-0.37866578,1.4423008,0.23732942,-0.78710973,1.552953,-1.8351594,0.47361943,0.32229224,-0.28079697,0.06682459,0.48249862,1.862247,1.2093129,0.559303,0.67858547,-0.6514975,-0.8982182,-0.44984072,0.55726856,-2.5419984,-0.6027989,1.6333201,-1.0390319,-0.7480925,1.1927595,1.4120263,0.7671156,-0.9463723,-1.1061395,-0.66526425,-1.1688992,-1.077825,0.26411796,0.63558704,-0.031237168,0.3884542,-1.3686248,1.3655173,-1.6167475,-1.3132982,0.4640785,-0.16725609,-1.0424359,0.6293339,-0.56358725,-0.14429697,1.1202621,0.8890424,-0.64696306,-0.616486,-0.47824126,-0.35434118,0.5889576,0.90924275,-0.29511267,-0.22042067,1.3884693,0.12748438,-1.6806743,-0.5984569,-1.1747359,0.5271026,-0.7777776,-1.4287189,-1.4652381,1.9396145,-0.1191242,-0.5882269,0.608277,0.08903923,-0.5043473,1.9491844,1.153381,0.617698,-0.71808165,-0.32108632,1.5236182,-0.40731013,-1.5404079,-0.41099122,-0.9650515,0.6105469,-1.223043,-0.11203972,0.06184235,-1.0027337,-0.08243684,0.13582785,-1.6397529,-1.9823807,-0.352956,1.4404352,-0.8093627,-0.1555028,0.04234922,0.5110701,-0.26884663,-1.0098203,0.82722986,2.221257,1.0303985,1.4749669
AML-72-001,1.3558115,-0.7447497,0.5654858,-1.3578397,-0.8052562,0.4974324,1.4593371,-0.82275933,0.54811573,1.2727618,1.289147,-0.80749416,1.1605052,-0.32361892,2.3506298,1.2816567,-1.0176121,-0.56263125,0.32226515,-0.49520382,0.6195966,-0.7439478,1.1824778,0.74159735,0.92005616,-0.3145267,-0.30790454,2.401847,0.5381775,0.15758584,-0.7206584,-0.45958173,0.4593146,1.1024289,1.5230823,0.14766656,-1.4247543,1.7402924,0.23421071,-2.185021,-1.6269056,0.05583822,-0.88962686,-0.016992277,-1.7624549,0.043642446,-0.32629842,1.7884547,-1.3814303,-0.763012,0.61332756,0.99150896,0.94946575,0.66522455,0.6757059,0.28787148,0.9794828,0.31044224,-0.7407899,-0.0661409,0.31658065,0.4988354,-0.6821055,-0.023769299,-0.73810965,0.035342712,1.0033014,-0.45380488,0.32831454,1.6068503,-0.93479645,0.63707757,0.8879661,1.6448281,-0.4264953,0.742288,-0.24390641,-0.10077369,-0.6735734,0.38932398,0.0858882,1.5446255,1.1708448,0.049595814,1.0582614,-1.5839183,-1.1041502,-1.134771,-0.7221592,-1.215353,-0.40312716,2.4984558,-0.39055255,0.49091718,-0.37603837,0.94547445,0.25990143,0.41267413,0.6892346,-0.87511307,-1.331138,-1.3951234,-0.51240623,-0.6319968,-0.5364826,-1.0156795,-0.93479913,1.0902951,1.40919,-0.77472126,-0.25130674,-0.9918062,0.4381082,0.92352015,0.53936386,-1.7614586,-0.6328277,1.9443843,-0.93596977,-0.60984236,-0.029822681,0.626304,1.5785688,1.3449574,-0.3205939,1.7374252,1.3624414,0.039921343
AML-71-001#2,1.390674,-0.5049777,-0.4001268,0.019716429,-0.42182687,1.0213813,0.7902156,0.98201084,0.9705482,1.1720079,-1.9681368,-1.2665892,-0.020284455,0.95500773,1.1953567,-1.4025583,-0.20212275,-0.15314431,-0.16331804,-0.705571,0.6328895,-0.25157553,-0.91209495,-0.64565885,0.0964485,0.19736789,-0.034872893,0.653536,-0.15056062,-0.28769556,-0.44837442,-1.0684603,0.60327554,0.8627601,-1.7692796,0.7710182,-0.43252385,0.9933326,0.6696352,-0.9188096,-1.3042916,1.6234667,0.4594548,-0.59528136,-1.7587551,-0.21877548,-0.8780491,0.83142644,-1.1150657,-1.3125111,-1.2408311,0.837386,-0.19253515,-0.060245264,-0.7631878,0.24696895,0.17771053,0.18270294,-0.46026036,0.31421575,0.12429088,-0.5525533,-3.2805152,1.032299,-1.2875017,-0.10009329,0.7362061,-0.22499079,-0.4968312,1.188946,-0.6139996,-0.8836553,0.3563768,0.643098,-0.76166856,0.32254422,-2.006499,-0.9270863,0.089420736,-0.5566418,0.8424647,0.3366757,0.06525628,-1.584474,0.5577024,-1.0261811,-2.1326363,-0.5838089,-0.5608462,0.22921355,-0.6008043,1.6965002,0.58386725,-1.2743196,-1.0581744,-0.6897773,-0.018435977,0.30792588,0.89547473,1.1803426,-2.3521383,0.24960482,2.0934625,-1.6911032,-1.1656153,-0.053715184,-0.26063597,-0.2766366,0.031991504,1.0282775,-1.6536956,0.43644807,-1.4872744,0.1533722,-0.42264718,-0.03302157,-0.36886868,1.0021433,-1.3272066,-0.34739456,2.717651,0.09277879,-0.89951557,0.73111653,0.25358158,1.4004037,2.055477,1.4090376
AML-96-001#2,2.3021193,-1.2050798,-0.14252275,0.008197779,-0.74236685,0.6814866,0.4331372,0.9068439,1.2554525,1.9511642,-1.2390568,-0.6048213,0.18624964,0.42496055,1.4209868,0.35846233,-1.0716704,-1.2586054,0.17880167,-0.17520826,0.576224,-0.22334492,-0.70669305,0.0024019077,1.1942364,-0.74729156,-0.67093885,1.4276258,0.06470565,-0.6488854,0.13877605,-0.32194436,0.82997566,-1.4455655,-0.30520153,-1.301842,0.16129695,0.49048597,1.3441992,1.6662071,-1.1167905,1.3994441,0.7998701,-1.4556586,-0.7351861,-0.56387657,-0.07865412,1.1094323,-0.1780939,0.7610352,0.039491653,-2.0195608,0.3848571,-0.3652984,0.9030962,-1.4929045,0.6991246,0.8004755,0.9706561,0.4104132,-0.33511135,-1.0239413,-0.26617274,-0.12106533,-0.92809844,-1.6228598,-0.53318137,-1.5163002,0.5771982,0.8568878,0.65625864,-1.2526472,0.49607784,0.70837593,-1.855612,0.479969,-0.15484603,-1.4276552,0.11791139,-0.8029532,0.7076783,0.637251,0.25679272,-1.0973386,0.10965692,-0.067640476,-0.010577191,0.34163344,-0.5743747,0.2722125,-1.0277579,0.8590203,0.07178026,0.9184197,-1.2778475,-1.072434,-0.49427983,-0.097086586,1.5039513,-0.7230828,-0.30230132,0.4028989,2.2073357,-1.9520212,-0.85956126,-2.1948104,0.74836177,0.63491446,1.345909,0.7397342,-0.6063938,0.23213966,-1.6636292,-0.1685162,0.86112046,-1.7460698,-1.2129004,1.6841232,-0.15840293,1.4240943,0.023072595,0.627592,-0.33835238,-0.24831186,0.7580462,1.3648746,2.9877172,1.137399
AML-97-006#2,1.4833643,-1.7937411,0.5147439,2.1548638,0.29009894,0.77849674,0.38938412,-0.2890902,-0.17191118,1.3252978,-1.5205926,-1.0119584,0.71539164,0.2970726,1.2791816,0.0746428,1.6491102,-0.9035067,0.19845423,-0.30959332,0.67977196,0.34609097,-0.12318706,-0.19380353,-0.57140326,0.8496799,-0.7652048,1.5220213,1.6097124,-0.032154586,-0.12569085,1.3173087,2.26836,0.42990586,0.13500294,0.0071365773,-1.2030343,0.16355866,0.021125454,-0.7737704,-1.9250472,-0.032169137,-1.4044563,-0.096891254,-0.77622265,-0.7276117,1.0462656,3.1955156,0.13484885,-0.89380455,-0.28963003,0.82845515,1.5672015,-0.37756142,-0.03705294,-0.73397505,0.94426477,-0.5641402,1.1082364,1.6993918,-0.4245683,-0.8569283,-0.4814669,0.013186768,-2.0282857,-0.71739125,-0.41834947,-1.3278767,-1.6207954,0.6308772,0.1085158,0.41162264,0.8252632,-0.20961091,0.4563913,0.6426777,-0.74047667,-0.054720655,-0.045690384,0.579313,0.6055443,0.32809928,-0.5737113,0.36416137,0.54406255,0.93254673,-1.2419125,-0.5897098,-0.04744319,-1.745056,0.26323992,-0.98888856,-2.24977,-0.35724595,0.5679538,0.89932925,-0.76385766,0.18509491,-0.5629352,0.514945,-0.33850417,1.4745402,1.2702639,-0.889964,-2.4220235,-1.3979737,-1.0563067,0.22069427,-0.12194009,0.5858116,-0.45257616,0.7554632,-1.6534851,1.0958602,-0.66266453,-0.5616506,0.29573977,1.2457008,-0.9638648,-0.6055504,2.2022564,-0.18083604,0.16842186,-0.43239897,0.977546,0.762696,1.8151287,-0.23428625
AML-15-001#2,1.7169869,-2.065237,-0.101265654,0.9622369,-0.76517814,1.0304465,1.6547735,-0.57025,0.06481335,-0.23990463,-0.61280084,-1.6687603,-0.53735596,1.3492187,2.1548934,0.18757033,0.53298694,-1.384547,0.9247378,-0.023614211,0.4131438,-0.34320134,0.7184452,-0.8344708,2.0121448,-0.30399725,0.4368592,1.7013144,0.40783563,-0.24408096,-0.36857855,-0.28623432,0.09243352,0.050040454,-0.08074128,-0.6753574,-0.96415716,1.7096324,1.3202418,0.029694093,-1.4641838,-0.32726547,-0.928701,-1.3860632,-0.6622435,-0.16641515,-1.2048423,0.96598405,-0.8280456,0.2361934,1.0019325,1.8036944,1.7359651,0.011786205,1.346439,-0.22374645,0.88817644,0.12078587,0.48347297,0.55291724,-0.47659498,-0.46434116,-1.1094582,-1.7368644,-0.027080115,-0.24306303,0.7546986,0.037071843,-0.89695704,-0.56402963,-1.3354663,1.1681312,0.76816237,0.37718603,-0.7722348,0.88537645,-0.700152,-0.2275488,-0.6267555,-0.7734743,-0.5533454,0.35357872,0.06885627,-1.0013257,-0.9768265,-1.674711,-1.540613,1.0805969,-0.97160965,1.1917589,0.08489184,1.3916762,-0.83926946,-1.0043676,0.38063046,-0.6229159,-0.97927344,1.3230184,-0.84668654,-1.1432616,-1.396632,-0.6694015,0.7296347,-0.006693856,-1.883707,-1.3396335,-1.1141101,-0.025641672,0.9237959,-1.4672024,-1.2534155,-0.90488565,0.66681933,1.3660008,-1.8888259,-1.3790191,-0.7104822,0.88052875,-0.8597238,-1.3234862,-0.059114777,-0.12814951,-0.1878731,-0.23463047,-0.92645204,1.1824145,1.5574069,1.7915242
AML-58-001#2,1.612062,-1.5645138,-0.47301948,2.6150975,-0.17825438,0.2763891,0.9746476,-0.90087676,0.23088014,1.546984,-2.2685237,0.011311714,-1.5309858,-2.294278,-0.68269116,1.5755554,-0.5348835,0.24395622,-0.24845618,-0.3004415,0.7784406,-0.36840078,-0.51320535,-0.017107638,0.040718544,-0.6464303,-1.1136492,1.7325405,0.8844144,0.71794087,1.7402794,0.9833108,2.3739007,0.4466259,-0.3996027,-0.20820227,-0.53323734,0.07877263,0.042497855,-0.4547306,-1.8990384,0.18345362,-0.5798118,0.42631406,-1.3678511,-1.0727372,0.88655466,2.6437652,-0.9745583,-0.49273795,0.7160082,1.1565999,0.80616087,0.24324894,0.5603169,-0.3729855,-2.287186,-0.04686643,-0.6297446,1.2005372,-0.36614665,0.70359224,-0.77161205,0.5511768,0.6155332,0.26075757,-0.47165415,0.26613498,-0.6496657,-1.1483551,0.77344203,0.45888123,0.4933838,0.52360433,-0.06143639,1.0025299,-0.6561311,-0.5171802,1.1540251,-0.14290366,-0.39969176,-0.2813457,0.58111775,-0.66619074,0.44034034,-0.5143333,-1.7169768,-0.07105138,-0.23141639,-0.6616651,-1.1865445,1.8493593,-0.088729456,-1.3454168,-0.65075195,1.0978341,-1.5463356,0.16385302,0.7409148,0.369589,-1.1822263,0.6481049,0.5008822,-1.3975432,-2.3444438,-0.62941086,-0.006473943,0.6439259,0.17215715,0.059968706,0.7672737,-1.6487718,0.3277235,-0.20801044,-0.54784316,0.8887,1.725812,0.8498577,-0.66136074,0.12928861,1.2735063,0.5863516,-0.17930542,-0.41291982,-0.74840075,1.9685466,1.1294024,0.079842985
AML-76-001#2,1.8715771,-0.99293053,0.4184379,0.83020586,-1.2383703,-0.64846873,0.06611924,1.7659438,1.5719079,1.012681,-1.842092,-0.960463,0.15450555,-1.8022563,2.547787,-0.12883286,-0.86965257,1.0520365,1.0342317,-0.6261546,0.09790759,0.2792159,1.1416551,0.5599672,0.7026875,-0.7603347,-0.8037385,2.32515,-1.3261555,-0.96266854,-0.36531392,0.1360829,0.27403042,-0.6500016,-0.19859426,-0.87840915,-1.4920777,-0.08634322,0.2854247,0.6399428,-1.323465,-0.36068466,-0.23141941,-1.0306796,-1.0853462,-0.75726914,-1.3598773,1.7526176,0.46529415,0.3591541,-0.97471553,-0.56229466,0.08778637,-1.4159287,-1.0300287,-1.2439564,-0.7511552,0.5789354,0.58159524,0.77834713,-0.85793835,-0.05221596,0.391074,-0.38809103,-2.3615394,-0.050165657,-0.46618325,0.39964932,0.071632415,-0.8938515,-0.49823183,-1.5931381,0.71797645,-0.5657708,-1.8990322,0.2072398,0.6087403,-0.7091463,-0.5641205,0.40034708,-0.007812502,1.674699,1.094365,0.21235642,-0.6448822,-0.6471351,-0.35286787,0.24627,-0.42269176,-0.5167845,-0.69627976,0.21690972,-0.22060813,-2.0087724,0.44661662,1.3772482,-1.1900582,-1.4060835,0.7311155,-0.18012312,-0.24642707,0.55019677,1.4894271,-0.1847073,-1.3851862,-2.50744,0.28951132,0.55880314,1.787543,0.95258254,1.2066487,-0.13401346,-1.2766175,-0.8048788,-0.29420677,-1.2742132,0.053400654,0.46447656,-1.1059191,-0.8140906,1.1658436,0.47825718,0.44977632,0.41577995,0.63964564,0.6921425,2.007444,0.9101928
AML-04-003#2,2.596166,-2.5025544,0.08993717,0.2819481,-1.2815173,0.32345563,1.0640026,-0.51527995,1.6090828,1.5057038,-2.1725354,-0.4929302,0.7273674,0.9933533,1.5667756,-1.2012515,-0.6055668,-2.043885,0.47693938,-1.0308621,0.4850958,1.2499814,0.28069234,-0.9071556,0.037011627,0.41206524,-0.07382427,1.9544045,-0.11790827,-0.3778921,0.00014535859,0.5309728,0.07674601,1.8612653,-0.5805724,1.0352466,0.014460558,-0.026164448,-0.1366736,-0.6024118,-0.29937562,0.112788066,-0.71540534,0.5507602,-0.3933912,0.08036815,0.8904661,1.9332207,0.3348244,0.43991897,-0.983422,0.6783233,-1.0334312,-0.49415314,1.3012077,-3.0568526,0.17365295,1.0738002,-0.08596292,-0.05097202,-0.42175516,-0.9730532,0.35133883,0.18548305,-0.9702816,-1.5405171,0.13827091,0.3680385,0.4807669,-1.2868065,0.50208783,-0.34601998,-0.31330702,-0.43208763,-0.8697045,0.18705902,-0.5977922,0.39182633,-0.7180126,-0.013760904,-1.1674651,1.5575366,-0.8772598,-0.38633427,0.54652244,-0.9886355,-0.12002258,-1.1059414,-0.115856834,-0.9329768,-1.6732605,1.8357425,0.50156915,-1.0640988,0.11328273,-0.101770446,-1.1054051,0.45539752,0.49811625,-0.041118715,-0.9209974,0.58904487,0.55597645,-0.4364858,-1.9637394,-1.6196373,-2.040286,0.56010914,0.0028760012,0.4770833,1.7794552,-0.3259055,-0.07946728,0.4001265,0.02782401,-1.3542436,0.12763572,2.636641,-1.1914425,0.096888624,-0.8553661,-0.4162074,0.38934568,-0.0689417,0.070995696,0.30638787,1.5646026,0.88613707
AML-89-001#2,1.847317,-0.71569395,-1.0349963,0.8297274,0.046739127,0.07959315,0.6525185,-0.38110948,1.3956397,0.83772147,-0.79056257,0.33368886,0.014488304,-0.08379499,0.5199385,-0.58341193,-0.44994903,0.6592304,0.9389291,0.6740035,0.5079688,-0.8396529,-0.52282196,-1.0132083,1.7074325,-0.17384458,-0.6176918,0.9456274,2.3278062,1.1410966,-0.19941138,0.7639396,0.852567,1.2550471,1.07756,0.58309555,-1.3005959,0.71710014,0.29252884,-0.53413814,0.094442554,0.765011,1.0298557,-1.4303058,0.2959854,-0.007684064,-0.26145896,1.1452055,-1.3276207,0.7931142,0.8278447,0.7402486,0.91178256,-1.768575,-0.45340976,-1.220911,1.4971454,-0.36637586,-0.3327117,0.6622094,0.9648708,-0.4110678,-1.1878347,0.6865755,-2.5906067,-0.35309976,1.7363058,-0.64463395,-1.8296523,0.825134,-0.4128953,0.32457614,0.6270261,-0.6460153,-0.22338341,-0.044598807,-0.468207,0.62773764,-0.17766482,-0.6584306,1.2242969,-0.059768736,-0.14074402,-0.9326475,0.7473886,-1.3801004,-1.7515776,-0.28095064,-2.0641658,0.9727822,-0.77060497,0.9536898,0.74084496,-1.4656332,0.41603565,0.81541055,-2.422215,0.13853264,0.49453825,0.89709914,-0.01773277,0.32462597,1.6566731,-1.417584,-0.48052046,-2.0683026,-1.7594675,1.7750311,0.22091392,0.5612599,-0.19243042,-0.593179,-1.2905741,-0.090771735,-0.121181294,-0.65659577,-1.0949874,-0.7976793,-0.22962697,-0.014008618,0.43475246,0.48668864,0.7197643,0.6664177,0.05303324,2.1940918,1.5226636,2.1451712
AML-60-001#2,2.6833417,-1.8092515,0.11446622,-0.004716513,-1.4081708,0.9870849,3.0213015,-0.50322366,-0.07273513,1.1990308,-0.8650181,0.5986128,1.3373505,0.021461735,-0.16981015,-0.45496404,0.031663254,1.2384024,0.70794636,-0.28357473,0.38023463,0.32968065,0.25837982,0.72239465,0.62839305,-1.6908618,0.6402225,1.093405,0.23837619,-0.8530448,0.9453109,0.4701035,1.436975,0.23654029,-0.477041,-0.7646181,-0.78356254,-0.8513067,-0.31086576,-1.2343701,-1.9185815,0.58441603,-1.2890332,-1.3139514,-1.6204504,-0.6082276,-0.23402072,0.004923474,-0.16054286,-0.040643416,1.6841996,0.60650134,-0.2117511,-0.5132031,0.17459887,-0.8670439,-0.7730015,0.6508244,1.2026557,-0.620436,0.04159353,-0.6251741,0.835733,1.614079,0.20859464,-0.5410132,-0.14899625,0.27225608,-0.852347,-0.35384905,0.4022611,-0.3193013,-0.6256309,0.49987042,-0.27793282,0.052183554,-1.7166718,-0.24288899,-1.5681053,0.7630907,-0.050232086,1.1817365,1.303512,-0.92330754,0.5019887,-1.0392953,-0.6352671,0.4172725,0.42298102,-0.8050687,-0.5585383,1.1527462,-0.0387992,-0.41293114,1.4587868,1.4016305,-1.2123173,0.9625319,-0.09094329,1.3125387,-0.013004654,-1.1064242,0.9502112,-0.59240186,-2.5845156,-1.4108732,-0.9255895,1.5006976,-0.21153688,1.4355454,-2.0540645,-0.6060968,0.6775342,-0.65104806,-0.85032433,-0.40925065,-0.21989061,0.6467756,-1.782861,-0.23979002,0.56859934,-0.015277078,0.08863084,0.64865917,0.26231763,2.9972618,-0.95993906,1.2128575
AML-83-002#2,2.1706643,-1.4291108,-0.30259323,1.544648,0.47003654,0.5040239,1.6856594,0.65039474,0.957631,1.0233907,-2.3135674,-0.75297296,-0.9349803,-1.8280642,0.06766589,0.25942042,-0.37886515,0.037387915,0.7491561,-0.47024179,0.3357391,-0.63585556,-0.5775168,-0.03904665,0.70077574,0.2665207,-2.1183908,2.1637566,0.15783404,1.04367,1.0102276,0.9552223,1.3981272,-0.1840055,0.70500994,-1.1402544,-0.2088874,-1.2480466,-0.45677856,0.029743146,-1.7642307,0.9874051,-0.6869059,-0.29894653,-1.029702,-0.67339456,-0.3497228,2.522726,-0.83622605,-0.9099599,-0.5289962,0.63172436,0.6197611,0.11047724,-0.28745654,-0.7581601,-1.1631055,-1.2010925,0.69036305,1.7386988,-0.8976105,-0.19419608,-1.3028401,-0.97867113,-0.66869086,0.6501024,-0.27619663,-0.3621003,-0.1998708,-0.172923,0.89506257,-0.95344335,0.91198623,0.88394874,-1.5860949,-0.6359774,0.031107156,-1.717061,0.2016014,-0.33516067,0.24328835,-0.14933282,1.1722494,-0.160183,-0.56736416,1.1206952,-0.7414615,1.2222438,0.15367813,-0.76595974,-1.5593617,-0.026477607,-0.11837434,-1.0745547,0.113850996,1.1259793,-1.9267964,-0.6049432,0.44351092,-0.8413808,-1.380381,-0.46106416,-0.32929558,-1.8422397,-1.1607591,-1.4350053,1.1620797,1.3972896,-0.49267238,0.29283366,1.1404501,-1.1388813,-1.8118194,-0.7558373,0.634794,0.13610269,0.55192345,0.4953249,-0.23826204,1.4387218,1.3818293,-0.12540354,0.9290502,1.1758883,0.24955925,1.7442623,1.0767319,0.5347264
AML-104-001,2.064552,-1.9428648,0.36503357,1.0714495,-1.2139392,0.12199534,2.5665295,-0.8373212,0.030121174,1.6841824,-1.4894444,0.12041873,-0.059619196,0.38881296,0.30691364,-0.1886612,0.5743966,-0.39358395,0.60958177,0.2972204,0.4744487,-1.1695561,0.5429862,-0.5439559,1.2290566,-0.8565843,0.010574172,1.4747144,-0.7304947,-0.56104994,0.65542966,0.5061041,0.13477288,0.037532393,-0.20713349,0.81464666,0.2670263,-0.55085623,1.4374732,-1.6119645,-1.64998,-0.19733396,0.09021877,-1.0319494,-0.73403174,-1.2390548,-0.105611406,0.35356686,-1.5372612,-1.0727583,0.7336371,1.1176199,-0.1004121,-0.72807395,0.21281648,0.21252325,-0.5968088,-0.5903405,0.61056787,2.430159,-0.18264535,-0.0726444,-0.5661797,-0.68157816,0.28883564,-1.411854,-0.004132947,0.80652,-0.62449396,0.47655427,-1.0028484,-0.9010726,-0.53768486,0.8784026,-1.3012357,0.63323164,-0.2195146,-0.29708165,-0.8981194,1.0782014,0.3859475,0.9453539,1.4408736,-1.4663501,0.0004861099,-2.164101,-1.0922089,-0.4697751,-0.017498376,-1.0940336,-1.0603347,0.94259334,1.2373343,-1.337359,-0.07581965,1.5592215,-0.8523407,0.20853779,0.7622919,1.5376236,0.13955188,-0.658966,0.18140632,-0.52268034,-1.6839176,-0.09247392,-1.5567894,1.5366973,-0.65515035,1.2089784,-1.4623713,-0.72593886,0.048187885,-0.31342524,0.66118044,-0.6340586,-0.72405684,1.280127,-1.371368,1.4475307,1.399224,0.42728704,0.82913613,0.7206167,-0.38050658,2.741366,1.0252484,1.8348918
AML-115-001#2,1.4671732,-1.7343017,-0.30429778,0.66894805,-0.79082537,0.054308414,2.0401628,-0.5806722,-1.5958912,2.0724385,-0.76158977,-1.6472766,-0.26074362,0.05167637,0.18493554,0.60924166,0.31891325,-0.11329644,0.99499714,-0.6272355,1.1404966,-0.38235444,0.7786373,1.0103158,0.63429046,-0.19560209,-0.99156475,1.082563,0.7536751,-0.16810462,-0.13284577,2.0801957,1.8127792,0.5896279,-0.8643899,-0.34472576,-0.07321559,-0.34340256,-0.16546604,-0.41513816,-1.1328291,0.8020014,-1.8586867,-0.6259451,-1.8503233,-0.41028872,-1.2857639,1.5819805,-0.017712679,-0.61968535,-0.41690323,0.9404151,1.2852608,1.0277678,-0.10495855,-0.91795415,-1.0484565,0.3529379,1.6873235,2.0753558,-0.54897344,0.42590716,-0.9248291,-0.16694717,0.8980322,-0.24542832,1.462734,-0.58231515,-0.62403506,-0.3111379,0.18111241,-0.031823605,1.0381602,2.0476696,-0.75270927,0.6972537,1.2084849,-0.2724547,-0.61924255,0.63915265,-0.5149769,0.42306325,0.8716576,-0.36863622,0.8456513,-0.39190575,-0.7919792,0.4435903,1.2694445,-1.5880587,-0.91212803,0.7322161,-0.9252009,-1.6259595,1.1706549,0.80673563,-0.67062354,0.514497,0.6229258,0.7828229,-0.5203143,-0.67347294,-0.25865415,-0.39665774,-1.842066,-0.6909502,-1.7793301,0.9010549,-0.2332653,0.4486007,-0.8954533,-0.730413,0.51007533,-0.0870227,-1.2708552,-0.5379577,-1.52509,1.0164875,-1.7787579,0.19013262,0.91741073,0.30280527,1.131475,0.085584134,-0.37777576,3.3121014,0.74339336,-0.26011738
